#include "yolo_lite_tf2.h"

// Creation:  07/12/2022, 10:30:50

namespace  Layer_0 {

	// Name: Layer_0
	// Input-Shape: (1, 224, 224, 3) FPF:  2.12
	// Weight-Shape: (3, 16, 9) FPF:  2.12
	// Bias-Shape: (16,) FPF:  2.12
	// Conv-Relu Output-Shape: (1, 112, 112, 16) FPF:  5.9


	int16_t conv_result_shift_right  =  7 ;
	int16_t bias_store_shift_right  =  8 ;
	int16_t bias_load_shift_right  =  -5 ;
	int16_t result_fractional_bit  =  9 ;
	int16_t result_integer_bit  =  5 ;

	//Coeff fpf:  2 . 12
	int16_t conv_weights[3][16][9] =
	{{{-2342,-6711,-4599, -885,  696, 3061, 2753, 6401, 2358},
	  {  -51, 1147, 1169,  -24, 1343, 1091, -377,  598,  407},
	  { 1353, 2741, 1292, 3505, 5006, 2173, 2163, 3119,  745},
	  { 2074, 4422, 2844,-1334, 1073, 2429,-3864,-4910,-1815},
	  {-1919,-1367,-2076,-2340,-3402,-2059,-2401,-3270,-1771},
	  {-3781, 1172, 3227,-5041, 1876, 3366,-3973, 1571, 2859},
	  {    0,-2600,-2014, 3162, -530,-3132, 2415, 3050,  216},
	  {  -46, -108, 1762,-1369, -758,  989,-1273, -859,  516},
	  { -222,  280, -241, -605, -567, -604, -618,  146, -399},
	  { -899, 4910,-4178,-2809, 6757,-3867,-2694, 4515,-1882},
	  { -830,-1692,-1383,-1570,-2458,-2197,-1768,-2064,-1565},
	  { -184, -329, -184,   -2, -518, -244, -525, -643, -499},
	  {  -46, 1997,  -89,  496, 1829,  968, -339,   10,-1604},
	  { 2285, 3069,-2165, 4502, 1129,-5062, 3233,-2262,-3483},
	  {  658,-3199, 2502, -387,-4458, 4915,-2210,  834, 1261},
	  { -347,-2153,  144, -438,-3180,-1582, 1080,-1061, -117}},
	
	 {{-1246,-5754,-3578,-1093,  700, 2863, 1869, 5062,  849},
	  { 1636, 1941, 1582, 1816, 2004, 1761, 1592, 1949, 1810},
	  { -379, -895,-1101,-1427,-2433,-2259,-1648,-2122,-2127},
	  { 1319, 3368, 2200, -983,  906, 2266,-2923,-4615,-1959},
	  {  108, 2165, 1646, 1153,  387, 1407,  764,  761, 1926},
	  {-3707,  787, 2479,-4929, 1816, 2931,-3066, 1187, 1869},
	  {  514,-2252,-1946, 2839,  167,-3248, 1789, 2897,  149},
	  {-1068, -287, 1371,-1324, -795, 1172,-1590, -517, 1042},
	  { -205, -150,   55, -556, -471,  -62, -309, -267, -465},
	  { -959, 4711,-4039,-2774, 6520,-3524,-2771, 3960,-1398},
	  { -638,-1286,-1542,-1543,-1994,-1922,-1157,-1791,-1655},
	  {   39, -621,  -44, -649, -188, -628, -731, -532, -343},
	  {  173, 1915,   93,  267, 2445, 1003, -912,   20,-1745},
	  { 1862, 2444,-2634, 3733,  679,-4945, 2677,-1942,-2543},
	  { 1562,-2918, 1663,  679,-4460, 3929,-1528,  904,  596},
	  { -192,-1462, -297, -122,-2591,-1077,  776, -800,   74}},
	
	 {{-1498,-5682,-3797,-1158,  929, 3126, 1687, 4901, 1578},
	  {-2198,-1946,-2075,-2971,-2975,-2479,-2644,-2309,-2136},
	  { -745,-1196,   44,-1743,-2274,  -85, -603,-1205, 1245},
	  { 1550, 2868, 1472, -925,  832, 1612,-2911,-3774,-1575},
	  {  229, 2835,  274, 2558, 2936, -124, 1820, 1980,  106},
	  {-2688,  530, 1155,-3837, 1539, 1761,-2449, 1461, 1539},
	  { -379,-2951,-2211, 2800,  -99,-2993, 2031, 2663,  239},
	  {  320,  926,  699,  567, 1082, 1429, 1056, 1557, 1727},
	  { -490, -258,   33, -613, -538, -200, -484, -560, -421},
	  { -525, 2932,-2572,-1924, 4437,-2283,-1806, 2236, -588},
	  { -787,-1819,-1714,-1517,-1837,-1816,-1591,-1918,-1499},
	  { -201, -395, -126, -439,   29, -387, -368, -507,   62},
	  { -131, 1688,    1,   71, 1588,  448,-1406, -100,-2051},
	  { 1750, 2248,-2227, 3248,  879,-4267, 2240,-1970,-2596},
	  { 1058,-2692, 1074,    0,-3810, 3236,-1733, 1161,  486},
	  { -645,-2043, -296, -813,-2526,-1229, -605,-1349, -665}}} ;

	//Bias fpf:  2 . 12
	int16_t bias[16] =
	{  347,  453,  283,  412,  777,  635,  281,-1771, -109,  -13, 4161,  -53,-2950,  505,
	   360, 4929} ;

}; // namespace  Layer_0 

namespace  Layer_1 {

	// Name: Layer_1
	// Input-Shape: (1, 112, 112, 16) FPF:  5.9
	// Weight-Shape: (16, 32, 9) FPF:  2.12
	// Bias-Shape: (32,) FPF:  2.12
	// Conv-Relu Output-Shape: (1, 56, 56, 32) FPF:  6.8


	int16_t conv_result_shift_right  =  6 ;
	int16_t bias_store_shift_right  =  7 ;
	int16_t bias_load_shift_right  =  -3 ;
	int16_t result_fractional_bit  =  8 ;
	int16_t result_integer_bit  =  6 ;

	//Coeff fpf:  2 . 12
	int16_t conv_weights[16][32][9] =
	{{{  -58,  -74,  -31,  235,   62,   15,  478,  220,  176},
	  {  895,-1352, -243,-1951, 1921, -525, -302, -167,    5},
	  {  -35,  340,  -26, -104,   88,  389, -605, -453,  241},
	  { -391, -533, -484, -415, -465, -598, -308, -408, -392},
	  { -476, -658, -410,  -52, -244,  214,-1043, -936, -439},
	  { 1043,   -9, -681, -266,-1570,  576, -654, 1265, 1277},
	  {  420, -221, -135, -197, -386, -126, -305,  -86,  212},
	  {-1319,-1121,-1341, 1690, 4153, 1945,-1964,-1611,-1525},
	  {  -25, -367,  -36,  216,  208,  425,  392,  507, -164},
	  {  237, -183, -200,  186, -294, -486,  221, -243, -448},
	  { -213, -519, 1114, -837, 1208,  670, -440,   22,  -47},
	  {-1928,-2461,-2246,-2705,-3146,-3001,-2168,-2792,-2365},
	  {  557,  440,   59,  258,  380,  102,  -37,  -68,  102},
	  { -748, -288, -289, -242, -451,  345, -163,  551, -217},
	  { 1328,-2893, -258,  934, -669,-2470,-1420, 1180, -709},
	  { -550, -411,  282, -482,   43,  182, -979,  346,  -10},
	  {  346,   36,  226,  541,  375,  468, 1101,  279, -387},
	  {  337, -666, -816,  539, -797, -972, 1059,  -21, -307},
	  {   55, -312, -459, -596, -475, -528, -180,  322,  215},
	  {   47,   -1,   83,   48,  -13,  268, -788, -636, -417},
	  {  331,   84,  -64, -248, -448, -420,  559,  104,  290},
	  { -115,  -50,  229, -495,-1149, -125, -122, -676, -306},
	  {   49,   35,   30,   30,   60,  -79,    0,   16,  -70},
	  {  372,  357,  679,  -45,  813, -497,  605,   41,  339},
	  { -355, -520, -399, -276, -549, -404, -351, -508, -530},
	  {-1284,-2117,-1629,-1233,-1556,-1712,  800,  517, -286},
	  { -586, 1393, -767,  587, -339,-1673, 1173,-3095, -324},
	  { -213,  357,   25,  276, -187,  553,  206,  111,  672},
	  { 1320, 2393,  127, 2032,  886,-1298,  305,  712,  -72},
	  {  696,  141, -217,  178, -303, -306,  364,  -91, -192},
	  {  421,   57,-1531, 1370,  981,-1665,  677,  206,-1429},
	  {  184,  170, 1003,  219,   13,  421,  259,  280,  434}},
	
	 {{ -327, -237,  -40, -968, -822, -741, -215, -432, -458},
	  { -666,  430,  587, -576, -929,  652, -469, -778, -357},
	  { -103, -253, -196, -405, -614, -519, -455, -427, -413},
	  { -445, -402, -390, -510, -512, -509, -210, -449, -338},
	  {  275, -193, -350,  363,  297,   13,  754,  322,  367},
	  {  217,  507,  608,  -44, -381,   62, -347, -290,  255},
	  {  282,-1106,-1886, -349,-1685,-2006, -932,-1725,-1587},
	  {-1146, -834, -734,  -63,  -87,  -38,  827, 1161,  923},
	  {  720,  130, -212,  385, -664, -759, -147, -552,-1186},
	  {-1101,  -30, 1490,-2292,  -82, 2384,-1684, -344, 1699},
	  {  -10,   42,  275,  195,  -10,  451, -235,  378,  118},
	  {  432,  173,  361,  200, -161,  -52, -122,   41, -192},
	  { -274, -235, -135,  -27, -191, -195,  -31, -311, -167},
	  {  348,  621,  -35,   71,  447,  319, -855, -882,  -38},
	  { -811,  521, -150,  651, -750,  -35,  892,  -67, -122},
	  {  320, -384,  176,  441, -595,  202,  321,   20,  197},
	  {   85,  -10,  243, -102,    9,  176,  214,  194,  -59},
	  {  -40, -787,   53,  299, -520,  356,  256, -347,  385},
	  { -277,  247,  263, -318,  566, -287, -173,  412, -409},
	  {  385,-1014,-1245,  560, -650, -686,  441, -601, -648},
	  {  -69,  811,  221, 1050, 1577,  513,  223,  411, -461},
	  {  -14, -441,  195,  -76,   53, -187,  549, -410,  177},
	  { 3061, -256, -615, 2202,-2685,-1589, 1095,-1703,  554},
	  { 1259, 1619,  853, -927, -366,  188,-1098,-1223,   17},
	  { -255, -197, -128, -318, -282, -257, -308, -320, -340},
	  { -763, -732,  419, -693,-1137,  472,  -38, -600,  669},
	  { -318,  602,  306, -331,  579, -412,  371, -857,  -20},
	  {-1025,-2618,-1544,-1741,-3804,-2854, -594,-2362,-1857},
	  {  699,  640, -291,  736,  183, -644, -106, -636, -735},
	  {  -71, -287, -299,  280,  -46, -133,  617,  510,  128},
	  { -115, -231, -128,  107,   93,   32,  164,  154, -187},
	  {  459,  482,  618,   90,   -1,  150, -173,  114,  -94}},
	
	 {{-1186,-1004, -509,-1538,-1406,-1195, -580,-1082, -948},
	  { -990,  223, 1119, -201, -543,  262,   80, -424, -860},
	  { -247,  207,  148,   45,  279,  399, -531,  169, -219},
	  { -287, -120, -274, -321, -384, -430, -431, -377, -395},
	  { 1106,  406,  185,  401, -173, -276,  -50, -395, -842},
	  {  479,  395,  135,  426,  -46, -104, -170, -262, -233},
	  {  334, -627,-1048, -440,-1482,-1789, -909,-1807,-1717},
	  {-2050,-2249,-1944,  317,  353,  598, 1324, 1572, 1891},
	  { -699,   82,  428, -574, -397, -201,  169,  605,  241},
	  {-2380, -518, 2596,-3398,  -48, 3560,-2328,  142, 2388},
	  {  510,  191,  -22,  -13, -424,  -50, -290, -335,  497},
	  {  745,  623,  584,   76,   -4,   58, -345, -235, -319},
	  { -792, -431, -618, -302,   52, -647,  198,  545, -286},
	  {  817, 1332,  887,   19,  275,  268,-1234,-1613, -975},
	  { -567, -497,  172,  646, -395, -433,  657, 1037, -506},
	  { 1289, -908,-1092, 1685, -126, -889, 1188,  541, -621},
	  { -880,-1045, -212, -419,  112, 1088,  445,  988,  934},
	  { -400, -207,  181, -139,  103,  405, -217,  -54,  366},
	  { -210,  -22,  188, -107, -107,  170, -183,   12,   59},
	  { -154, -498, -610,   46, -470, -625,   22, -496, -675},
	  {-1451,-1718,-1600,-1680,-2026,-1720,-1025,-1333, -982},
	  {   51,  836, -472, -810,  628,  126, -789,  277,  416},
	  { 4178, 2943,-2244, 4264,  613,-4161,  353,-2682,-3065},
	  { 1370, 2927, 1854, -920, -639, -267,-1350,-1848, -933},
	  { -223,  -87, -108, -390, -489, -454, -337, -404, -494},
	  {   56,   71,  348,  -50, -332,  163, -335, -268,  -23},
	  { -536, -421,  897, -537,  246,  307,  259,  636, -661},
	  {  466,  666, 1005,  389, -697, -452,  538,  141,  -86},
	  { -533, -332,   92,  -30,  -55,  133,   28,  -30,  309},
	  {  281, -169, -472,  677,  421, -219,  310,  421,  201},
	  {  -45, -227, -313,   16,  193, -321,  -84,  141, -479},
	  {  356,  273,  829,  -53,   92,  380, -361, -306, -244}},
	
	 {{  279,  -79,  664,  401, -341,   61,  867,  512, -225},
	  { -633,  512, -180, 1170,-1222,  260, -614,  596,   94},
	  {  111, -111,  392,  122, -353, -158,  212,  -88, -118},
	  {  -91, -218, -329, -450, -687, -599, -328, -656, -382},
	  {  271, -212,  444, -252,  -59,  -69,  -66,  169,  364},
	  { -191, -319,  370,    1, -784,   12,  491, -107, -137},
	  {  152,   99,  137,  -23, -174,  140, -103,  166,  271},
	  {  203,  942,  601, -825, -703, -549,   75,  573,   72},
	  {  232, -237, -261,  763,  265,  529,  406,  -64,  128},
	  {  114, -401,   94,   51, -431,  -81,  115, -386,   48},
	  { -738, -459, -283,  237, -989, -552, -368, -717,   34},
	  { -743,-1058, -142, -884,-1294, -869, -549, -915, -815},
	  {  501,  881,  738, -264,  186,  219,-1069, -605, -692},
	  {  449, -482,  218, 1058, 2771, 1807,  256,  461,  809},
	  { -890, 2974,-1226,-1744, -127, 2342,  251,-2719, 1013},
	  { -856,-1388,  162,  602,-2387, -324,  962, -895, -253},
	  {  194,-1418,-1575,-2221,-2521, -240, -874,   25,  998},
	  { -540,-1097, -802,  337, -208, -104, 1077,    1, -128},
	  {  272,  -47, -170, -672, -625, -967,  349, -181,  496},
	  {  550,   68,  298,-1522,-1245,-1088,-1161, -907, -714},
	  {  258,   -2,  139,   59, -448, -416,  108,  -14,   25},
	  {  831,  651, -914, -301, 1204,  249, -127,  -58,  265},
	  {   59, -152, -123,  -16, -121,  109,  -68,  -82,  136},
	  {  639,  242, -192, -242,  -75,  -33, -185,   52,  600},
	  {  373,  247,  678, -156, -361,  -61, -338, -306,  -70},
	  { -456,  121, -268,  172,  377,  210,  620,  739,  650},
	  {  -78, -605,   52, -938,-1717,  329, -926,-1127,  863},
	  {   11,   20,  408,   84, -220,  312,  134,  320, -243},
	  { -244,  197,  437,  438,  702,  -96,  862,  -62,  -79},
	  {-1604,   55, 1692,-2435,-2601, -833, -427,-1690,-1468},
	  { -215, -425,   97,   29, -214,  -54,  618,  -81, -659},
	  {  785,  430,  923, 1147,  152,  530,  684,  959,   98}},
	
	 {{  112, -540, -750,   88, -411, -437,  168,  -63,  156},
	  {  506, -866, -772,  118,  437, -381,-1285,  125,  488},
	  {-1310,-1969,-1551,-1398,-2122,-1456, -758,-1645, -779},
	  { -540, -401, -506, -536, -686, -551, -681, -580, -670},
	  { -467, -237,  -49, -482, -178,   71, -346, -334,  -49},
	  { 1106,  478, -216,  301, -599,-1097,  -30, -709,  -85},
	  {  249,  435,    7,  308,  -24, -234,  -28, -365, -767},
	  { -170,  104,   20,  105,  287,   65, -210, -311, -318},
	  {  245,  368,  231,  -91,  163,   25, -102,  204,  242},
	  { 2434,  580,-2729, 2730,  638,-3174, 1502, -129,-1916},
	  { -113,  296, -136,  -98, -467, -156,  -81, -367, -107},
	  {  463,  627,  294,  186,   17, -133,   61, -170, -232},
	  { -428,-1218, -770,-1203,-2235,-1239,-1093,-2395,-1499},
	  {  814, 1094,  753,  -57, -168, -259, -608, -734, -723},
	  { -279,  -90,  753, -207, -313,   55, -125,   32,  105},
	  {  341, -122, -216,  355,  311, -462,   -8,  439,   -3},
	  { -465, -390,  -89,   39,  147,  367,  484,  632,  351},
	  { -270,  123, -261, -457,  246, -212,  -95,  641,  176},
	  { -253, -138,   93, -363,  277,   34, -232,  386, -132},
	  { -641, -887,  222, -345, -487,  684, -373, -291,  863},
	  {  316,  260, -234,   61,  -12, -235,  -33,  102,  128},
	  { -691,  440, 1010, -876, -215, 1236, -673, -569,  507},
	  {-3324,-1070, 2046,-2779,  876, 2592, -331, 1416,  903},
	  {-1220,-2686,-2027,  621,  642,   16, 1752, 2153, 1354},
	  { -360, -274, -313, -388, -377, -562, -375, -612, -346},
	  {   52,  -48, -118,   90, -388, -206,  212,   11,   11},
	  { -574, -206,  834, -192,  593,  -53,  325,  109, -856},
	  {  -73,  597,  209,  -35, 1085,  236, -675,  -15, -169},
	  {  291,  444,  189,  406,  364, -366, -146, -230, -689},
	  { -252, -376,  187,  112, -485,  251,  326, -228,  374},
	  { -361, -104,  100, -179,  114, -258, -122,  189, -392},
	  { -277,  583, 1375,-1026, -447,  362, -502, -482,  341}},
	
	 {{ -112, -968, -308, -520,-1264,-1229,  188, -356, -862},
	  {  -26,  473, -218,  257,-1740,  308, -589,  886, -223},
	  {  851,  441,  352,  584,  149,   43,  469,  298,  418},
	  { -361, -659, -530, -463, -651, -619, -472, -715, -590},
	  {   37,   64, -274, -362,  608,   74, -406,  208,  217},
	  {    0,-1715,-2110,-2010,-4151,-1414,-1629, -755, 1151},
	  {  213, -210, -716,   66, -334, -308, -473, -104,  196},
	  {  376, -432,  121, -319,-1240, -327,  324, -679,  100},
	  { -173,  563,  -27, -261,  205,  593, -947, -879, -197},
	  {   34, -456, -223, -276, -645, -198,    4, -392,  388},
	  { -319, -817,  137, -256,  548,  205, -129,  939, -235},
	  {  713,   -1,  508,  605, -155,  353,  326, -343,   36},
	  {  320,  -31, -181, 1091,  540,  328,  568,  280,  494},
	  {  -95,  297, -515, -278, -721,-1049,  -52,  344,  403},
	  { -687, 2845,-1134, -400,  -58, 1592, 1040,-3383,  551},
	  { -502,-1880,   56, -356,-3345, -166,  367,-1073, -489},
	  {   10,  120, 1134,  395,  592,  204,  242,  261, -917},
	  {-1004,-1641, 1808,-1253,-1099, 1823, -932, -953, 1467},
	  { -854, 2075, -390,   -9, 2958, -967, -303, 1342,-2269},
	  {  -18,   48,  549,  408,  806, 1302,  319,  528, 1330},
	  {  634, -158,    0,  154, -154,   -9,  413,  -84,  202},
	  {  450, -228, -937,  496,  889,  262,  613, -438,  886},
	  {   20,  119, -113, -130,   10,  -37, -178,   48,   97},
	  { -152, -348, -172, -177,  -58, -306,   50, -307,  -64},
	  { -282, -527,   61, -509, -620,  -80, -542, -673,  -33},
	  { -192,  386,  930,  470,  671, 1840,  136,  306, 1492},
	  {-1592, 1311, -623,  -18, 2131,-1701, 1870,-3087, 1220},
	  {  386, -290,  -94,  -55,  211,   99,  -47,   64,   75},
	  {  202, 1396,  541,  599,  173,-1122, -334, -655, -342},
	  {-2006, -904, 1175,-2100,-2389,   72, -753,-1518, -124},
	  { -717, -795,  242,  319, -133, -183,  799,  178, -119},
	  {  840, -570, -313,  280, -757, -860,  611,   64,  -12}},
	
	 {{   20,  -16,  441,  213,   62,  295,  778,  418,  219},
	  { 2207,  -79, -795,-1186, 2497, -207, -585, -531,  346},
	  {  182,  137,  430,  120, -113,  161,  544, -114,  -42},
	  { -278, -297, -157, -312, -373, -299, -341, -169, -159},
	  {  477, -134,   12,  745, -213,  650,  221,  -66,   41},
	  {   72, -138, -359, -506, -780, -659, -212, -269, -592},
	  {  -59,   92,   -8,  243, -107,  130,  171,  -85,   32},
	  { -169, -382, -403,  994, 1971, 1165,-1009,-1528, -850},
	  {  356, -146, -265,  203,   48, -166, -139, -473, -285},
	  {  646,  257, -381,   -6,   58,  -24, -399, -207,  300},
	  { -702, -661, -161, -782, -653, -138, -332, -525,   -1},
	  { -551, -775, -454, -663, -823, -678, -158, -767, -668},
	  { -448,   58,  -38,   66,  336,  148,  623,  184,   -2},
	  { -257,  241,  -97, -809,-1155, -849, -466,  221, -109},
	  {  857,-1945,  142, 2011, 2283,-1430, -946, 2031,  435},
	  {  748,  224,   38,  199, 1269,  410, -653,  812,  728},
	  { -336, -574,  134, -412,-1187, -450,  -13, -483,  -51},
	  { -835,   20,  396, -495,   86,  239, -225, -197,  248},
	  {  579,-1144,  217,  439,-1335,  273,   36, -768,  269},
	  {  338, -192,  -98,  635,   81,   68,  614,  446,   20},
	  {  -66, -299, -416, -280, -493, -232,  257, -215, -123},
	  { -634,  208,  630, -124, -525,  321, -257,  -31,  136},
	  {  -67, -334,  -96, -192, -151,   66, -288,  -33,  131},
	  {  592,   -5, -168,  576,  853,  356, -108,  286,  683},
	  {  -87, -453, -288,   97, -345, -387, -110, -229, -373},
	  { -660, -728, -455, -396, -541, -742,  552,  517,  176},
	  {  622,-1956, -451, -248,-1629, -582,-1135,  -23, -126},
	  { -243, -162,   22,   91, -268, -303,  201, -224, -215},
	  {  138, -206, -445,  -60, -199, -733, -219,  -77, -142},
	  {    3,  645,  214,  -64,  -53,  309,  279,  207,  231},
	  { -104,  163, -729,  125, 1032, -172, -130, 1019, -168},
	  { -663,-1652,  388,  412,-2051,-1109, 1153, -850,-1102}},
	
	 {{  606,  305,  372,  565,  305,  351,  488,  359,   26},
	  {  906, -270, -455,  -11,  153, -232,-1265,  130,  255},
	  {  204,   19,  231,  115,   22,  335,  360,  259,  471},
	  {  159,   88,   47, -101, -269,   39, -174, -281, -144},
	  { -238, -416, -152, -186, -571, -126, -311, -646, -476},
	  {  864, -313,   40,  129, -834, -589,  -28, -471, -656},
	  { -167,  -95,   59, -314, -373, -301, -364, -531, -576},
	  {  -38,  -27,   18,  -79,  113,  411,  -73,  -89, -234},
	  { -286, -651, -645, -438, -638,-1003, -549, -358, -435},
	  { 1222,  320,-1274, 1555,  294,-1861,  832,  -78,-1041},
	  { -199, -293, -577,  -47, -878, -984, -243,-1279, -370},
	  {  575,  597,  975,  -59, -106,  317, -352, -477, -209},
	  { -788, -790, -574, -969, -828, -526, -730, -719, -326},
	  {  584, 1394,  988, -342, -142, -286, -991, -921,-1023},
	  {  227, -571, -119,  533, -194, -213,   49,  300,   46},
	  {  537, -332,-1289,  670,  131, -815,  650,  917,   53},
	  { -938, -570,  225, -598,  -31,  810,   81,  641,  870},
	  { -928,  691, -479, -607,  979, -393, -562,  986, -304},
	  {  -48, -889,  329,   70, -667,  491,  281, -674,  545},
	  { -563, -567, -304, -289, -313,  137,  -90,   23,  562},
	  {  429, -342, -215, -378, -590, -404, -133,  -45,   66},
	  { -677,   99, 1198, -645, -417, 1407, -114, -673,  792},
	  { -496, -313,  323, -325,  165,  519,  233,   10, -244},
	  { -488,-1093, -808,  496,  608,   15,  511, 1063,  452},
	  {    9, -120,  358, -127, -217,   34,   76, -151,  110},
	  {   23,  -62, -157,  -36, -184,  -87, -201, -464, -488},
	  {  241, -310,  144, -162,   70,  -36, -178,  233, -304},
	  { -178,  279,  443, -420,  199,  456, -705, -505, -291},
	  { -395,  349,   38, -160, -208, -448, -333, -471, -835},
	  { -862, -571,   44, -475, -630,  149,    0, -138,  267},
	  { -414, -385,   50, -193, -223, -252,    0, -207, -324},
	  { -583,   89,  911,-1184, -373,  173, -631, -405,  383}},
	
	 {{ -301, -273, -409, -320, -276, -206, -255, -295, -267},
	  {  -31, -113,  -10,    4, -133,  100,  144,  112,  -21},
	  { -128, -286, -250, -291, -140, -132, -133, -335,  -58},
	  {  208,   23,   98,   44,   43,   77,  137,  209,   57},
	  {  217,  145,   88,  159,  -27,  119,  -36,  179,   25},
	  { -239, -261,  -94, -407,   -5,   51,  -50,  129,   68},
	  { -118,  -71,  -83, -109,  -96,   71,   -9,   21,   -1},
	  {  -44, -107,  -98,  -18,  -46, -237, -169,   -6,   46},
	  {  280,  332,   94,  333,  172,  245,  445,  328,  329},
	  { -219, -182,   61, -247, -143,  170, -117, -160,  -39},
	  {  -29,   71,   51,  151,   43,  125,  109,  187,  200},
	  { -161, -137,  -68, -122, -180,   42, -116,   70,   43},
	  {  147,  248,  146,   74,  186,   13,   50,   57,   49},
	  {   40,  -74,  -92,  135,  254,  120,  311,  366,  230},
	  {   89,  -55, -153, -177,  128,   75, -255, -236,  -60},
	  { -338,  -49,  116, -584, -249,  -71, -398, -413, -130},
	  { -165, -115, -406, -112, -211, -417, -376, -375, -279},
	  {  -49, -248,  -22, -210,  -62, -113, -164, -133, -106},
	  { -151,  -82,  -43, -139,  -29, -351, -262, -280, -254},
	  {   44,  -96,   57, -163,   21, -244,  -40, -232, -261},
	  {  221,   82,  -42,   24,   65,  168,  189,   76,  -31},
	  {   -7, -226, -176,   61, -161, -248,   54,   36, -141},
	  {  -86,   24, -235,  -62,   49,   -1,  -74,   27,   93},
	  {  213,  137,  199,   10,   78,  149,  -91,   94,   67},
	  {  123,   70,  131,  -35,  201,    8,  175,  199,  170},
	  {   86, -113, -111,  -54,   23,  107,  114,   54,   24},
	  {  106,  -52, -205,  -70, -160, -149,   93,   -5,  -25},
	  { -105,  -68,  -89,  -37,  -68,  122,  -25,   75,  -45},
	  {  239,  247,   77,   62,  158,   23,  217,  292,   96},
	  { -187, -160,  -43, -325, -124,   -2, -389, -294,    0},
	  {  210,  -45,   69,  -29,   26,  -16,  -35,    3,  -63},
	  {   26, -106, -329,  225,   37, -290,   77,  -45, -308}},
	
	 {{ -588, -972, -580, -933,-1412, -921, -122, -357, -710},
	  { 1098,-2254,  228, -246,  958,  543,-1603, 1278, -607},
	  { -185, -539, -343, -367, -673, -280, -401, -555, -482},
	  { -592, -665, -582, -683, -697, -668, -468, -787, -679},
	  {  410,  651, -297,  974, 1413,  479, 1065,  883,  251},
	  { -901,-1121,-1144,-1333,-2345,-2033, -725,-1256, -482},
	  {  -55,  141, -693,  756,  -74, -483,  300,  -41, -358},
	  {  199, -375,  225,  143, -877, -276, -167,-1291,  -58},
	  {  961,  246,  352,  408, 1211,  696,-1028,   42,   50},
	  {   12,  122, -275,   34,   95,  -50,  -10, -164,  -98},
	  { -455,  394,  354,  444, -827, -187,  443,  141, -576},
	  {  425, -613, -240,  675, -285,   79,  474, -465,   28},
	  {  120,  -27,   24,  857,  519,  353,  517,  486,  246},
	  {   77,  267,  144, -524, -537, -325,   67, -183, -281},
	  {  368, -477, -721,  802,-2350,  791,-1375,  279, -158},
	  {  590, -375,  541,  498,   72,  184,  115,  880,  -74},
	  { -649,-1355, -221,-1672,-1366, -136, -798,  734,  398},
	  {-2859, 1384,  680,-2691, 1616,  737,-2933,  858,  756},
	  {  -39, -175,  113,  101,  309, -143, -665, -179,-1058},
	  {  141, -655,  -14,  480,   11,  787,  160,  -99,  190},
	  {  676,   20,   -9,   29,   -7, -182,  359,  -20,  -34},
	  { -172,  658, -502,  753,  590,  576,  124,  502,  262},
	  {  141,   38, -140,  -37,   68, -120,   10,  -13,  -21},
	  {   83,  -30,    3, -280,  -22, -258,   89,  151,  195},
	  { -227, -788, -475, -350, -887, -481, -180, -812, -650},
	  { -238, -738,  377,  285, -573,  584,  -66, -360,   96},
	  { 1177,-1195,   92,-1241,  632,-1234, -856,  214,  651},
	  {  -52, -385,  -76,  435,  718,  429,  107,  229,  -73},
	  { -735, -152,  -11, -122,  -73, -853, -551, -545,-1309},
	  {-1326,-1274,  668,-1397,-2025, -557, -672,-1442, -822},
	  { -908, -888, -888, -356,  320,-1104, -113,  901, -919},
	  {-2183,-2033, -384,-2504,-3326,-1975, -482,-2486,-1790}},
	
	 {{ -223, -273,   11,   57,  134,  192,  -49,   56, -150},
	  { -136,  579, -478, -688, -123,  291,  184, -647,  383},
	  {  144,  -22,  122, -160, -139,    8,   61, -196,   82},
	  { 1173, 1206, 1056, 1349, 1398, 1109, 1091, 1236, 1234},
	  {  179, -105,   35,  439,  160,   92,  375,  336,  119},
	  {-1475,-1153,  279,-1175,   67, 1196,  309, 1061,  769},
	  { -924, -755, -525, -568, -550, -389,   -8,   43, -328},
	  {  592,  835,  488, -612, -438, -459, -515, -330, -538},
	  {    6,  291,   -1,   80, 1052,  874, -209,  572,  877},
	  { -643,  274,  187, -827,  412,  409, -521,  363, -169},
	  { -497,  650,  786,  288, 1098,  -29,  794,  -25, -683},
	  { -707, -353, -357, -708, -610, -255, -104,  -36,  279},
	  {  356, -180, -544,    0, -535, -786, -346, -860, -836},
	  {-1894,-1880,-1548,  346,  444,  405, 1425, 1533, 1385},
	  { 1189, -272,-1042, -286,  597,  -75,-1033, -462,  972},
	  { -532, 1260,  446,-1041,  656,  869,-1068, -281,  322},
	  { 1071, 1314,  319,  333, -160, -791, -541, -873, -526},
	  { -911, -417,  834, -837, -436,  846, -471,  268,  831},
	  {  629,   48, -605,  937, -382, -677,  643, -723, -756},
	  { -206,  568,  106,   -2,  697, -113, -243,  237, -486},
	  {   45,  -14, -171, -174, -486, -515, -540, -832, -747},
	  {  634, -491, -625,  935,  254, -924,  151,  695, -498},
	  { -344,  277,   83,  -74,  344, -144,  -22,   24, -359},
	  {  682,  750,  507,  167,  251,    6, -707, -737, -392},
	  {  772, 1047,  904, 1104, 1269, 1185, 1051, 1035, 1107},
	  {  152,  357, -482,  549,  887, -376, 1119, 1247,  155},
	  {  284,  236, -833,  176, -722,  242, -739,  191,  593},
	  {   52, -571, -345,  200, -468, -467,  251,  -53,  -67},
	  {   70, -287, -444,  123, -374,   45,  498,  316,  210},
	  {  718, 1145, 1542,-1079, -286,  465,-1467,-1431, -417},
	  { -162,  183,  -25, -168,  315,  323, -483, -217,  294},
	  {  238, -918,-1223,  634, -154,-1249, 1000,  404, -409}},
	
	 {{ -361, -314, -305, -298, -204, -314, -238, -337, -249},
	  { -181, -182,  -98,  -20, -126, -107,  155, -152,  -14},
	  {  -56, -255, -167, -318, -321, -298, -343, -172, -153},
	  {  157,  106,  191,   59,  239,  115,  169,  259,  119},
	  {  194,  203,  125,  -34,  -70,  -16,  111,  -36,   69},
	  { -220, -229,  -96, -326,   97,  184, -163,  -46,  297},
	  {   11,  -96,   44, -122,   56,  156,   96,  116,  177},
	  {   17,  -60,  -28, -147,  -51, -277,    0, -107, -146},
	  {  374,   73,   84,  246,  150,  185,  425,  250,  387},
	  { -159,  -60,   85,  -45,   14,  125,  -32,  -12,  114},
	  {  176,   96,  235,   96,  148,    8,  156,   46,  -33},
	  { -168, -209, -138,   80, -146,  -40,  105,  104,  -27},
	  {  146,   95,  119,   68,  -67,  146,   31,  146,  149},
	  {   72, -101, -142,  150,   43,  218,  295,  245,  254},
	  {   78,    2, -214, -132, -133, -220, -256, -245,  -41},
	  { -489, -152,   -9, -560, -375, -236, -395, -316, -318},
	  {   20, -106, -425, -177, -283, -504, -324, -453, -282},
	  {  -72, -250, -115, -239, -286, -159, -227,  -69, -204},
	  { -228, -273, -253, -285, -211, -217, -114, -297, -385},
	  {   29, -124,   60,  -67,  -42,  -99,  -48, -249,  -67},
	  {  145,  124,   71,   66,   15,   19,   25,   61,    1},
	  { -116, -180, -124,  115,    9, -128,   30, -111, -117},
	  { -186,   -1,  -98,  -51,  -98,  -80, -155,  -87,  150},
	  {  216,  166,   89,   56,  106,  -61,  -18,   60,  -46},
	  {   65,  179,  128,  137,  108,  -17,  223,  133,  177},
	  {  -50,  101,  -41,  109,  108, -108,   44,    5,  101},
	  {   41,  -23,  -68, -157, -160,  -30, -103,  -23,   10},
	  {  167,  118,  122,   17,   82,  190,   38,   41,   25},
	  {   28,    3,  138,  142,  228,  145,   67,  138,  212},
	  { -160,  -35,  -91, -278,  -92,   87, -271, -309,    8},
	  {  -70,  -56,   56,    2,  -28,  -78,  -17,   72,  183},
	  {  107, -187, -348,  253,   25, -307,   26, -124,  -94}},
	
	 {{  359,   35,   70,  236,  246,  -13,  162,  -59, -380},
	  { -300, -228,   37, -144, -134,   91, -788, -705,   65},
	  {  454,  613,  424,  314,  496,  539,   -7,  112,  292},
	  {  229,  104,   -7, -158, -102, -210,  102,   71, -127},
	  { -173,  -68,  229, -173,    0, -152,  -67, -141,  -27},
	  {  715,  211, -166,  376, -111, -691,   43,    4, -352},
	  {  246,  240,   64, -128,  -89,  -73, -236, -308, -384},
	  { -159, -333, -105,  703,  457,  691, -647, -707, -472},
	  { -910,-1592,-1238,-1275,-1397, -985,-1161,-1205, -922},
	  {  189,   22,   -6,  144,   16, -349,   33, -191, -378},
	  { -814, -509, -217, -851, -649, -624, -530, -761,-1150},
	  {   17,   45, -137,  -26, -150, -164, -628, -490, -706},
	  { -267, -184, -380,-1059, -889, -752,-1052, -829, -792},
	  {  159, -209, -361,  219,  929,   85,  405,   60,   78},
	  { -124, -770, -830, -169, -571, -192,  -19,  367,  516},
	  { -186, -183, -437,   95,  174, -358,  407,  627,  477},
	  { -802, -814, -127,-1253,  115,  927,  -49,  709,  585},
	  {-1046, -664, -827,  637,  570,  631, -517, -432, -402},
	  {  -26, -789, -174, -222,-1007,  -88,  572, -202,  662},
	  {   -3,  375,   34, -494, -247, -309,   18,  167,  -67},
	  {  -35,   17, -416, -167, -347, -570, -243, -382, -350},
	  { -146,  125,  450,  194, -620,  569,  493,  188,  -46},
	  {    0,   18,  -76, -128,  -26,    4,   64,  136, -116},
	  { -184, -108, -353,  554,  144, -100, -365, -464, -209},
	  {  173,  230,  102, -111,   16, -101,  108, -168,    9},
	  { -367, -525, -352, -241, -402, -617, -394, -154, -669},
	  {  429,    9,  434,  168,  -34, -226, -490,  -81, -296},
	  {  155,    8,  162,  309, -144, -196, -145, -145, -316},
	  {  239,  376,  688,  258,  -56, -572, -131, -191, -648},
	  { -255, -480, -113, -541, -998, -704,  155, -488, -514},
	  { -511, -845, -373, -361, -424, -424, -291, -360, -589},
	  { -758,   33,  649, -815, -206,  548, -610, -147,   59}},
	
	 {{  320, -312,  113, -211, -690, -324,  361,   31,  132},
	  {  404, -596,  254,-1614,  126, -223, -100, -481,    1},
	  {  385,  320,  808,   55,  105,  696,   42,  482,  346},
	  { -508, -538, -332, -553, -465, -431, -415, -608, -497},
	  {  323, -700, -286, 1034, -209,  398,  609, -297,  204},
	  { -393, -149, 1282, -228,  279, 1140,  610,  689,  183},
	  {  169,  684, -557,  638,  179,  -81,  346,  165, -259},
	  {  341,  -45,  270, -571,-1560, -682,  405, -699,  418},
	  { -154,   -8,  510,  -73,  575,  490,  -16, -310, -171},
	  {  175,  239,  358,  573,  158,  212,  786,   44, -110},
	  { -406, 2744,  586, 1404,  646,-1197,  366,-1502,-1004},
	  { 1099,  346,  229,  661,  187,  446,  332,    9,  659},
	  {  240, -421, -590,  -43, -270, -107, -117, -159, -167},
	  {  191,  -51,  391,  -46,  293,  197,  672,  125,  -72},
	  {  342,-2711, -526,  110,  666,-1646,-1434,  959,   -4},
	  {  498,  110,  486,   19,   59,   38,  167, -521,  619},
	  { -415,-2237,-1768,-2562,-3164, -277,-1119, 1021, 1905},
	  {-1614,  799, 1015,-1994,  620,  831,-1884,  908,  298},
	  {  141,-1025,  192,  340,-1487,  324,  283,-1245,   11},
	  {  288,  283,  -99,  817,  380, -102,  740,  -72,  -75},
	  {  746,  738,  157,  394, -121, -269,    7, -541, -395},
	  { -769, -488,  -77,  -27,-1240, -422, -146, -261, -726},
	  {  128,  215,   -7,  159,  -39,  -46,  193,    6,   41},
	  { -123,  144, -127, -307, -408, -510,  108,  -51, -315},
	  {   58, -392, -182,  145, -481, -483,  112, -488, -535},
	  {  210, -449, -292,  600,  237, -432,  456,   38, -624},
	  { 1917,-3584,  619,  276,  776, 1501,-2070, 4180,-1250},
	  {  343,  158,  112,   79, -253,  156, -206,  216,   -5},
	  {  260, -463,   60,  -35,  828,  517,  361, -287, -119},
	  { -579, -219, -126, -759, -655,  -95,   98,   16,  325},
	  { -580, -809,-1060, -201, 1017,   87, -192, 2015,  598},
	  { -849,-3041,-1154, -815,-3876,-2835,  543,-2292,-2387}},
	
	 {{ -503, -845, -244, -782,-1299,-1166, -280, -715, -744},
	  {  -25,  899,  -53,  106, -552,   13, -106, -390,  334},
	  { -140, -281,   63, -353, -592,   63, -360, -357,  128},
	  { -435, -474, -541, -479, -487, -532, -275, -369, -380},
	  {  553, -864, -250,  420, -112,  155,   63,  272,   49},
	  { -383,-1430, -782,-1835,-2575,  334,-1391,  549, 1474},
	  {  205, -245, -685,  -32, -361, -463, -247, -215,  127},
	  {  135,  -95,  138, -408, -904, -238,  197, -408,  203},
	  {  226,  115,  605,   25,  393,  208, -689, -925, -249},
	  { -254, -173,   -1, -526,  -44,  133, -124,   -6,  185},
	  {  -80,  766,  851,   80, 1852,  -70,  626,  468,  220},
	  {  278, -685,  471,  355, -690,  180,  -34, -638,   42},
	  {  291,   36,   34,  392,  371,   38, -149,  407,  103},
	  { -474, -563, -250, -590, -828, -281, -635, -109,  371},
	  { -333,  857,-1475,-1583,  967, -757, -950,-1443,  -77},
	  { -422, -210, -245, -372,-1551, -117,  777,-1551, -138},
	  {   50,   14,  271,   10,   57,   21,  -21,  139,   11},
	  {-1674,  252,  238,-1765,  682,  332,-1401,  907,   27},
	  { -244,  938,-1443,  643,  637,-1424,  772, -697,-1660},
	  { -307,  218, -251,   -1,  922,  -25,  150,  545, -112},
	  {  381,  375,  484,  355,  323,  469,   29,   11,  182},
	  {  741, -262,  109,  415, 1488,   84,  118, 1082, -141},
	  {   89,  107, -184,  149,   -3, -150,   13,  -50,  -35},
	  {   99,   83,  283,   57,  396, -276,  -40, -253,   32},
	  { -239, -238,  -25, -323, -512, -220, -395, -429,  -72},
	  { -733,   21, -511, -216,  395,   82,  -81,  275,   53},
	  {-1391, 2140, -407, 1901, -156,  244,  953,-2362,  850},
	  {  -36,  290,  141,  435,  -66,  527,  -55,   18,  246},
	  {  167, 2152, -920,  910, -330,-1301,  -39, -932, -393},
	  {-1504, -124,  567,-1409,-1363,  266, -580, -718,  600},
	  { -487, -736,  -19,   59, -547,  -32,  442, -421,   35},
	  { -312, -974, -295, -564,-1116, -964,  -20, -518, -454}},
	
	 {{ -245, -165, -280,   21,  -68,   54,  101,  -14,  -51},
	  {  269,  739, -965, -930,  181,  493,   40, -996,  374},
	  {  400,  199,  249,  -46, -137,  130,  161, -164,  200},
	  {  -34,   35, -223,   53,  313,  188,  -87,  101, -193},
	  {  214, -103,  -82,  346,   12,  196,  263,  239,  -14},
	  {-1370,-1498,  137,-1340,  -95, 1045,  264,  972,  726},
	  { -119,   12,   12,  -10,  162,   29,  579,  816,  380},
	  {  846,  890,  746,  109,  337,  213, -909, -924, -792},
	  { -182,  270, -267,  -67, 1612,  883,-1172,  519,  666},
	  { -808,  228,  717,-1087,  547,  751,-1059,  488,  499},
	  { -979,  523,  830,  261, 1309, -349, 1128,  123,-1242},
	  {   48, -220,  254,  -38, -415,   67,  617, -132,  326},
	  {  897,  446,  -25,  678,  410,   93,  129, -340, -238},
	  {-2299,-2121,-1978,  224,  197,   68, 1385, 1887, 1846},
	  { 1821, -121,-1796, -187, 1239, -314,-1396, -149, 1717},
	  { -439, 1213,  611,-1498,  884,  923,-1199, -337,  596},
	  { 1079, 1058,  500,  363,  -54, -948, -863,-1021, -346},
	  {-1629, -410, 1499,-1526, -205, 1444, -768,  136, 1611},
	  { 1560,  578, -865, 1723, -109,-1020,  872, -997,-1212},
	  {  -23,  800,  108, -144,  408, -842, -328,  264, -831},
	  {  658,  650,  262,  675,  207,  -29,  294, -242, -257},
	  {  664, -850, -829, 1254,  988,-1109,  411,  925, -648},
	  { -167,  137,   85,   67,  336, -267,   86,  184, -512},
	  {  963, 1070,  867,  168,  608,  255, -985,-1054, -671},
	  {   84,  -60,  -74,  403,  311,  180,  107,   90,   84},
	  { -181,    2,-1556,  337,  791,-1142,  822, 1176, -448},
	  {  570,  405, -927,  706, -987,   44,-1037,   97, 1112},
	  {  169, -406,  -14,  648,  -56, -272,  839,  404,  268},
	  {  537,  401, -207,  -39, -522,  -79,  495,  337,   85},
	  {  607, 1221, 1584, -796, -496,  782,-1483,-1444, -135},
	  { -234,  233, -157, -300,  354,  131, -553,   59,  219},
	  {  545, -473, -620,  692, -424,-1073, 1106,  407,   29}}} ;

	//Bias fpf:  2 . 12
	int16_t bias[32] =
	{ 5214, 2594, 1719,-3849,-2018, 5978, 4869,  483, 1658,  -71, -228, 6030, 2782,  252,
	   458,  790, 2112,  689,  634, 1387,  612, -391,  -97,-1589,-2556, -244, 1006, 2095,
	 -2547, 5107,  322, 6021} ;

}; // namespace  Layer_1 

namespace  Layer_2 {

	// Name: Layer_2
	// Input-Shape: (1, 56, 56, 32) FPF:  6.8
	// Weight-Shape: (32, 64, 9) FPF:  1.13
	// Bias-Shape: (64,) FPF:  3.11
	// Conv-Relu Output-Shape: (1, 28, 28, 64) FPF:  6.8


	int16_t conv_result_shift_right  =  6 ;
	int16_t bias_store_shift_right  =  7 ;
	int16_t bias_load_shift_right  =  -4 ;
	int16_t result_fractional_bit  =  8 ;
	int16_t result_integer_bit  =  6 ;

	//Coeff fpf:  1 . 13
	int16_t conv_weights[32][64][9] =
	{{{ -213,-1016,-1568, -186, -619,-1252,  345,  -25, -826},
	  { -129, -334,  -78,  341,  195,  264,  972,  133,  366},
	  { -537, -550, -545,  106,  184,  -72, -223,  594,  162},
	  { -304,   -6, 1208, -250,  -52,  901, -488, -269,  359},
	  { -576, -182,  734, -640,   70, 1163, -729,  150, 1346},
	  {  538,  754,  728,  885,  817, -183,  751,  488, -893},
	  {-1270,  393,  862,  212,  108, -199,  841,   27, -364},
	  {-1462,-1239,   48,-1592, -894,  573,-1123,  -41,  929},
	  { -250, -467, -605,  299, -621, -483,  705,  204,  -26},
	  { -118, -626, -442, -650,-1057, -443, -275, -495, -210},
	  {-1209, -483, -223, -589, -190, -295, -278, -516, -297},
	  {  396, 1023, -978,-1062,  966, -664, -855,  442, -150},
	  { -473,  106,  -31,  409,-1074, -309, 1093, -301, -621},
	  { -430, -636, -756,   76,   36,   37,  563,    8,   96},
	  { -232, -434, -681,  399,  129,-1143,  826, -357,-1232},
	  { -595,   10,  110, -442,  243,  343, -349,  -87,  127},
	  { -498, -411, -490,  -84, -427, -761, -597,-1012, -430},
	  {  378,  540, -533,  269,   17, -771,  169,  255, -577},
	  {  552,  147,  453, -479, -668, -127,  109,  168,  419},
	  { -582, -267,  225,  393,  425,  893, 1165,  880, 1353},
	  {  720, -846,  437, -256,-2079, -451,  678,-1204,  369},
	  { -849, -441, -662,   52,   23, -198,  213,  660,   56},
	  { -194,   -9,   99,   67, -403,  -91,  926, -111,   54},
	  { -622,-1645,   76, -788, -189, 1017,  500, 1254,  641},
	  {  518,  -95, -223, -289, -940, -917, -209, -909,-1028},
	  {  220, -655,  424, -896, -909,  885,-1403,  175,  776},
	  {  974, -168, -403, 1065, -757, -745,  645, -639, -538},
	  {  384,  797,  647,  286,  800,  223,-1434,-1138,-1590},
	  { -235,-1078,-1203, -374,-1133,-1485,  407, -397, -943},
	  {-1783,  370, 1083,-1875,  808, 2221,-1391,  764, 1775},
	  { -208,-1719,-1107,  933, -157, -838, 1003, 1207,  270},
	  { -206, 1587, -163,-1442,  724, 1117, -496, -900, 1237},
	  { 1176, 1067,  580, -230,  187,  -74,-1633,-1317,-1117},
	  { -271,   65,  164,  389, -651,-1157,  216,-1046,  332},
	  {  636,  287,  404,  304,  161,  323,  552,  453,  433},
	  { 2414, 3034, 2731,-1119, -416, -111,-2133,-3046,-2255},
	  {    9,  206,  341, -480, -465, -570,  357,  220,   89},
	  { -453, -274, -273, -277,  -98, -599,  421,  617,  212},
	  { -892,  -96, 1065,  -61,   48,  495, -206,  333,  -25},
	  {-1245,-1429,-1382,-1254,-1726,-1302,-1197,-1378, -940},
	  {  908, -282,  -72, -152,-1560,-1301,   71,-1217, -643},
	  {  128,  147,  357,   99, -248,   81, -544, -154,  232},
	  { 1115,  184,-1141,  830,   75, -901,  689, -269, -639},
	  {  134,-1335, -959, 1217,  213, -150,  823,  986,  479},
	  {   31, -492, -841,  343,   49, -817,  237,  310, -178},
	  { 1141, 1473, 1292, 1040, 1188, 1041,  552,  787, -566},
	  { -846, -661,  739,-1034, -911,  520,-1005, -532,   20},
	  {   57,  -79, -446,  498,  586,  -15,   -1,  183, -518},
	  {-1034,   59,   26,-1211, -739,  287, -328, -578,   63},
	  {  266, -440, -211,  393, -292,   33,  355, -164,  310},
	  {  813, -197, 1147,   97, -166,  295, -833,  613,-1288},
	  {  171, -417, -706,  303, -572, -463,  174,   35,  390},
	  {-1004,  289,  414,-1521,  173,  625,-1558, -168,  452},
	  { 1256, 1248,-1650, 1718,  451,-1816, 1097, -601, -195},
	  {  516, -666,-1410, 1416, -102,-1502, 1901,  -99,-1033},
	  {  351,  579, 1170,   11,-1058, -268,  -34,-1040, -837},
	  {  118,  543,  127, -245,  106, -550, -249,  -57, -553},
	  { -771, -519, -605, -439,   76,  107,  405,  541,  745},
	  {  233, -161, -445, -117, -610,-1065,  511,  177, -750},
	  { -354, -874,-1074,  582,  -23,-1262,  965,  911,  284},
	  { -441, -401, -248,  428,  916,  763,   85,  298,  261},
	  {  777,  855,  746, 1490, 1021,  565,  821,  556,  390},
	  { -384,   86, 1728, -973,  196, 1826,-1096,  150, 1212},
	  {-1163,-1255,-1050,  215,  118,  432,  956,  823,  342}},
	
	 {{  761,  324,  -98,   67, -489,   56,   -2, -233, -101},
	  {  510,  762,  713,  101, -349, -630,   43,  -62,  -45},
	  {  -19, -212,  305, -168,  -98,  666, -278,  408,  650},
	  { -350, -462, -200,  265, -589,  396,  -73, -460, -594},
	  {   96,   29,  535,  120, -236,  490,  457,   80,  280},
	  { -454, -330,  415, -325, -632,  361, -536, -431, -296},
	  {  394, 1830, 1847, -506,   78, 2303,  359,  145,  358},
	  {  379,   62, -114,  285, -210,  126,  335,  162,   44},
	  {  399, -257,  158,   45, -294, -478,  150,  -87, -188},
	  {  892,  547,  308,  521,  171,  295,  613,  100,  103},
	  {  566, 1715, 1244, -188,  805,  543,  718,  536,  499},
	  {  897,-1936,  372, 1633,-1836, -225,  622,  -59, -457},
	  { 1390,  125, -106,  419, 1369, -416, -207,  765,  238},
	  {  390,   29, -645,  652,  173,   80,  718,  549,  492},
	  {  321,  231, -305, -131, -643, -475,  -64, -214,  391},
	  { -240,   19, -218, -763, -649, -553, -792,-1705, -403},
	  {  700,  429,  704,  483,  311,  246,  119,  358,  109},
	  {-1002,-1425,-1048,-1003,-1116, -983, -803, -786, -821},
	  {  613,  601, -207,  156,  472,  334,   35,  328,  -26},
	  {  525,  279,  328,  537,  711,  162,  -58,  127, -288},
	  {  412,  -12,  222, -452, -939,  -29, -326, -637,   27},
	  { -618, -342, -390,  -78,  437,  140, -736,   -3, -295},
	  {  156,   14,  -85,  359, 2010,   -4, -292,  121, -188},
	  {  -52,  569,  133,  385,  470,  251,  309,  143,  -40},
	  {  -67, -915,-1111, -436,-1187, -665, -450, -694, -193},
	  {   78,-1011,    0, -535,-2331,   37,  204, -658,  270},
	  { -590, -419,  115, -899, -611, -577, -938, -641, -543},
	  {  424, -315,   93,  -17, -764,   55, -173, -617, -517},
	  {  528,  605,   85,  662,  535,  497,  904,  367,  535},
	  {  259, -299, -995,  145, -107, -770,   -5,  -83,   98},
	  { -800, -296,  445,   96,   95,  248,  539,  285, -488},
	  {  179, -165,  214,  495,  713,  -24,  348,  659, -102},
	  { -813, -409,  -47, -987, -616,  -20, -338,  204,  197},
	  { -543,  -70, -230,  -30,  408, -741,   33,  410,  194},
	  { -984,-1283,-1196, -830,-1083, -835, -242, -633, -506},
	  { -566, -268,  489, -694, -632, -390, -332, -697, -979},
	  { -735, -520,  -47,  436, -302, -238,  771,  212,   23},
	  {   -4,  141, -145, -746, -727, -636, -206, -248, -490},
	  {   61, 2709, -146,-1203, 1625, 1954, -641, -473,  993},
	  { -414, -261, -335, -652,  -81,   79, -164,  232,  112},
	  { -311, -455, -205,    3, -575, -144,  100,  416,  458},
	  {  178, -241,  -89,   94, -281, -131, -271,  201,  337},
	  {  374,   33,  424,  676,  175,  444,  675,  296,  305},
	  {   30, -297, -821, 1026, 1296,   49,  592,  684,  737},
	  { -821, -355,  153, -235, -242,  -90,  165,   39, -189},
	  {  -33,   14,  587,  108,  -42,  229,  543,  255,  135},
	  {  825,  865, -131,  567, 1034,  363,  205,  412,  366},
	  { -468,  259, -202,  -20,  437, -289, -203,  710,  -76},
	  { -730, 1417,  798, -540, -185, 1329,   64, -454,  219},
	  { 1091, -461, -179,  372, -435, -133, -422, -104,  145},
	  {  545,  394,  621,  385,  215,  556,  642,  765,  924},
	  {  -85, -277,  885, -338, -228,  143,  329, -155, -363},
	  {  213, -461,  172,  274, -491,  -28, -461, -887,  174},
	  { -513, -399,  669, -659, -373,  377, -291,   93,  146},
	  {  529,  -73, -822,  423,  249, -501,  256,  418,  224},
	  { -177,  764,  575, -265,  -24,  476, -393,  315,   86},
	  {  429, 1081,  477, -137,  259,  572,  -21,   87, -138},
	  {  160, -220, -349, -447,-1040, -882,  770, 1248,  720},
	  { -294, -231, -295, -266,  341,  286, -262,  329, -308},
	  { -178, -504,-1007,  250, 1413,  -93,  118, 1121, 1698},
	  {  458,  385,  359,  147,  -50,  502,  135,   77,   50},
	  { -885,-1290, -807,-1187,-1328, -513,-1191,-1887, -959},
	  { -229,-1011,  543, -541,-1284,   46, -257, -623,  153},
	  {  460, -155, -381,  269, -269, -697,  111, -952, -694}},
	
	 {{  -40,  498,  910, -573, -563,  512, -751,-1012,  662},
	  {  375,  922,  662,  -55, -242,   63, -315, -586, -182},
	  {  151,  216,  162,  160,  168,   16, -416, -350,  127},
	  {  262, -476,  -94,   40, -528,  149,  424, -461,  456},
	  { -157, -622, -193, -299, -328, -250,  -33,  -10,  -37},
	  {-1366,-1368,-1332,-1046,-1261, -935, -562, -751,  -93},
	  {   48, -278, -158,   76, -420, -157,  264,  441,  -53},
	  {   71, -570, -875,   73, -436, -644,  262, -495, -507},
	  {  615,  794,  162, -231,  141,  -33, -237,   38, -592},
	  { -259, -622,  955, -266,-1386,  672, -179, -819,  392},
	  {  617,  640, -134,  186, -186, -206, -195, -432,  148},
	  {  323,  664,  275, -272,  427,  395, -628,  177, -289},
	  { -365, 1675,  522, -693,  557,  724, -992, -609,  263},
	  {  485,  607,  824, -365, -587, -297,  -76, -294, -169},
	  {  170,  748,  213,  396,  651, -789, -363, -568, -555},
	  {  865,   86,  120, 1355,  705,  335,  537,  697,  658},
	  { -158,   50, -338, -330,  114,  170, -412, -291, -191},
	  {  342,   78,   44,   67,   82, -108,  258, -269, -110},
	  {-1805,-1549,  292,-2387,-2231, -177,  -32,  401, 1122},
	  {  451,   83,  180, -114, -400, -366, -463, -956, -819},
	  { -389, -135, -170, -305, -130,  -66, -530, -421, -140},
	  {  123,  157,  200, -380, -536, -353, -527,-1076, -442},
	  { -246, -339,  804,   87, -736,  450,  376, -791,    6},
	  {  550, 3156,   47,  243,  688,-1288, -862,-1863,-1410},
	  { -260,  156, -203,    8,  247,   85,  281,  404,  204},
	  {  474,   24, -409,   18, -833, -126, -241, -449,  373},
	  { -166, -616,  -21,  413, -662, -262,  533,  -81,  -32},
	  {-1105,-1577, -736,  -47, -252, -536,  848, 1128, 1091},
	  { -105,  469,  354,  -97,  192,   43, -898, -426, -456},
	  {  693,  429, -345,  -35,  398, -428,  140,  121,  -36},
	  { -335, -662, -496, -212,  147, -662,   26,  762, -489},
	  { -833,-1371,  160,  257, -772, -871,  549, -552, -965},
	  { -647, -409, -597,  187, -409, -256,  355,  479,  338},
	  {   56,  344,  -72,  -31,-1097, -330, -725, -346, -274},
	  {  331,  203,  745,   60,  366,  685,   51,  381,  497},
	  {-1842,-2040,-2144,  247,  558, -706, 1138, 2907, 1471},
	  { -603, -856, -228, -325,-1057, -197,  176,  -44,  221},
	  { -305,  457, -354, -469,  392, -101, -203,  314, -393},
	  {  687, -599, -473,  175, -270, -490,  187,   69, -465},
	  {  617,  212, -383,  267,  376, -125,  356,  755,  116},
	  {-2415,-2190,-1588, -720,  918,  604,  506, 3146, 1726},
	  {   61, -350,   -1, -387, -454,   -5, -241,  183,  150},
	  { -549,  302,  906, -391,   78,  400, -422,  -48,  193},
	  {  -93, -790, -287,  199, -345,   10,  518,  177,  596},
	  {  968,  143, -239,  450, -572, -666,  577,  -47, -821},
	  { -329, -642, -597,  136, -510, -266,  419, -155, -105},
	  {   41,   -4,  726, -883, -618,  140, -605, -392,  242},
	  {  209,  224,   35, -613, -549, -260, -349, -163,    0},
	  { -209, -502, -618,  199, -541,-1185, -743, -413,-1399},
	  {  126,  237,  -83,   65, -144, -121,  143, -461, -445},
	  {  209, -526,  -89, -445, -271, -579,   19,  416,  211},
	  {  311,  413,  362,  394,  211, -134, -268,  163, -832},
	  { -154, -524,  460, -406,-1044,  -35,  160, -557,  535},
	  {  611,  -56,  364,   98,  -63, -340, -239, -584, -232},
	  { -578, -580,  290,-1265, -654, 1720,-1698,-1043, 1152},
	  {  -18, -238, -593, -184, -307, -720,  132,   61, -645},
	  { -410, -592, -409, -570, -720, -796,  419, -570, -365},
	  {  477,  413,  639,   65, -294,  137,   19, -376, -393},
	  {-1275,  606, -900, -524,  464, -223, -891, -196,  -76},
	  {   40, 1429, 1337,-1094,  387,  816,-1663, -942, -633},
	  { -338, -548, -540,  154, -110,  -56,  562,  608,  429},
	  {  221, -407, -690,   89, -205, -377,  784,  409,  274},
	  {  198, -969,-1023,  394,-1408,-1049,  139,-1034, -416},
	  { -787,-1122, -236,  -87,  167,  295,  350,  255,   49}},
	
	 {{-1138, -837,-1643,-1092, -603,-1553,-1308, -664,-1534},
	  { -131, -140, -398,  -82, -512, -272, -484, -856, -909},
	  {  379,   69,  -84,  215,   22,    0,  191, -112, -274},
	  { 1502, 1498, 1773, 1105, 1555, 1603, 2231, 2455, 2660},
	  {-1064,-1178,-1742, -981, -913,-1306, -854,-1153,-1264},
	  {  470,  578,  370,  234,  192,  319,  410,  276,  395},
	  {  205,  145,   83,  -98,  -14,   89, -140, -247, -204},
	  {  210,  247,  -92,  102,   27, -383, -277, -268, -397},
	  { -228, -364,  154, -730, -797, -293, -895,-1208, -895},
	  {  -52,  398,  595, -172,  186,  703,  203,  299,  718},
	  {  619,  496,  659, 1549, 1203,  782, 1785, 1474, 1357},
	  {  374,  236, -529,  187,   63, -287,  210, -337, -312},
	  {  -37,  273,  349,  184,  124,  287,  -22,  196,  196},
	  { -251, -198, -497,  -64,  204,  190,  201,   32,  290},
	  {  -52,  -53,  -51, -125,  -88,  -54, -316, -104, -470},
	  { 1872, 2237, 2442, 2704, 2834, 2738, 2307, 2712, 2563},
	  {  368,   75,  558,  635,  315,  683,  976,  416,  611},
	  {  746,  844,  440,  736,  317,  370,  381,   60,   70},
	  {  313, -230, -265,  -63, -685, -607,  274, -602,  -65},
	  {  -62,  104,  190,  317,   83,  228,   59,  220,  307},
	  {  584,  299,  298,  232,  131,  -74, -279, -175, -500},
	  { -281, -229,  -44, -531, -695, -494, -584, -774, -554},
	  {  388,  466,  338,  107,  432,  756, -146,  544,  652},
	  {  144, -574, -193,   77, -245,   36,  122,  -91,  -84},
	  {-1301,-1069, -870, -993, -876, -732, -756, -774, -530},
	  { -321,  486,  328,   67,  567,  188,  -75,   -6,  -52},
	  { -374, -389, -527,  -75, -195, -492, -285, -455, -317},
	  {  249,  304,  397,  216,  211,  266, -164, -321,    1},
	  {-1033,-1535,-1359,-1587,-1782,-1676,-1686,-2019,-2060},
	  { -570, -198,   60, -397,  219,  115, -525,  195,  302},
	  {  495,  793,  649,   94,  197,  599, -554, -218,    0},
	  {  250,  557,    6, -125,  187,  403,  136, -113,    3},
	  {  723,  729,  911,  460,  894,  796, -429, -180, -194},
	  { -104, -151,  335, -177, -286, -216,  464,  -68,  145},
	  { 1295, 1331, 1278, 1346, 1384, 1482, 1821, 1985, 1971},
	  {  207,  190, -113, -124, -195,   95, -628, -951, -688},
	  { -767, -663, -513, -685, -840, -581, -506, -302, -501},
	  {  187, -149,   82,   75, -424,  143,  365,   43,  321},
	  {  560,  780,  363,  509,  555,  450,  194,  275,  204},
	  {  382,  237,  308,  375,  562,  319,  571,   88,   24},
	  {  -69,   44,   28, -195, -301, -192, -228, -443, -175},
	  { 1310, 1436, 1317,  985, 1038,  397,  371,  108, -482},
	  { -292,    8,  197, -171,   71,   87,   -3,   66,   39},
	  {  181,  216,  170,  651,  460,  645,  238,  325,  361},
	  { -367,  111,  -39, -531, -160, -118, -603,   34, -207},
	  { -111, -460, -185, -152, -194,  -57,  207,  156,  231},
	  {  524,  221, -276,  662,  205, -526,  641,  706, -184},
	  {  253,  -91, -189,  232,   83, -306,  888,  314,   53},
	  {  833,  896,  246,  416,  708,  491,  576,  333,  655},
	  { -290,  137,  482,  -95,  331,  431,   14,  539,  596},
	  {    0, -760, -595, -312, -586, -569, -726, -920, -892},
	  { -202, -122,  217, -122, -338,  627, -181, -485,  543},
	  {  169,  264,  246,   43,  518,  -40,  366,  243,  -66},
	  {  176,  532,  361,    0,  553,   -6,  179,  227,  256},
	  { -154,  291, -139,   13,  317, -479,   22,  459,    3},
	  {   63, -837, -724,  316, -381, -531,  152, -259, -188},
	  {  811,  261,  266,  771,  -57,  140,  423,  126,  292},
	  {  -55, -394, -448,  161,  104,   85,  290, -404,  119},
	  { -862,-1049, -200,  309,  157,  443,  994,  925,  624},
	  {  601,  297, -276,  428,   78, -114,    3, -193,  -66},
	  { -386, -408, -326,  -34,  -97, -108, -552,  -97, -327},
	  { 1522, 1859, 1744, 1769, 2005, 1496, 1193, 1692, 1219},
	  {  391,  964,  653,  224,  565,  153,  179,  715,  469},
	  { -905,-1137, -846,  319,  424,  395, 1056,  922,  341}},
	
	 {{  -15,   -4, -220, -511, -462, -426, -645, -426,   96},
	  {  199, -340,   87, -415, -760,-1111,  171, -372,   88},
	  { -413, -681, -173, -592,-1131,  106, -724,-1256, -234},
	  { -140, -331,  327, -147,   43,  472, -428, -214,  100},
	  {  341,  -77,   28, -404, -408, -600,  222, -441, -359},
	  {   -1, -759, -754, -438,-1077,-1007,  -30, -592, -188},
	  { -446, -482, -112, -392, -468,  -78,  428,  206,  177},
	  {  531, -447,-1132, -152,-1053,-1067, -340, -997, -657},
	  {  516, -460, -958,   51, -735, -895, -252, -547, -940},
	  {  324,  312,   26,  583,  794,  347,  325,  745,  610},
	  { -842,  467,  507, -566, -382,  -80,  347, -543, -326},
	  {  548,-1023, -353,  117, -439, -941,   16, 1278,-1213},
	  {  296,  232, -935,  -53, 1059, -708, -358,  181,   19},
	  {  907,  934,  928,   49, -501, -546,  107, -262, -174},
	  { -354, -504,  -11, -607, -352, -123, -110,  451, -194},
	  {   -7,  183,  640,   94, -577,  445, -290, -486,   74},
	  { -274,-1178, -463, -143, -382,  294,  -50,  620,  279},
	  {  120,   23, -102,  -74,  346,  405,  144,  215,   48},
	  {   30, -230, -440, -546,-1212,-1031,  -88, -430, -600},
	  {  718,  787,  741,  170,  426,  308,  630,  417,  420},
	  { -229, -190, -111,  -13, -234,  629, -137, -297, -145},
	  {  601, -333,  369,   32, -572,  114,-1485,-1484,-1383},
	  {  549, -186,  133, -342,  152,  436, -244,  404,   29},
	  {   75,   73,  -22, -436, -398, -771, -281, -790, -319},
	  {  150, -624, -406,  -84, -582, -152,  296,  415,  567},
	  {  547, -807,-1293, -355,-1383, -531, -679, -685, -331},
	  {  -49, -409, -424,    2, -180, -788,  390,  -23, -529},
	  {  162, -117, -197, -540, -947, -807,  993, 1490, 1245},
	  { -362, -250, -655, -361,  101, -301, -745,  349, -216},
	  {  343, -589, -230,  115, -674, -161,   95, -673, -442},
	  {  270,  385, -673, -296, -152,   91, -713,-1204, -725},
	  { -144, -641,  297, -222, -111, -174,  218,  -70,    4},
	  { -524,-2055, -815,  126, -260, -131, 1086, 1517, 1350},
	  { -187,  707,  803,  -10, -100,-1336, -758,-1012, -637},
	  {  -87,  -77,  -80, -413,  -79, -147,   -7,  249,  292},
	  { -799,-1299,-1281,   51,  -60, -331, 1113,  859, 1128},
	  { -485, -598, -409, -399, -493, -479, -470, -617, -855},
	  { -217,  -80, -108, -368, -309,    1,  144,   58, -432},
	  { -467, -117, -112,  198, -773, -112,  270, -587, -639},
	  {  339,  620, 1014,   95,  -46,  204,  201,  210,  153},
	  { -373,-1219, -572,    9,-1278, -967,  237, -847, -722},
	  {  371,  296, -198, -246, -633, -360, -817, -292,  -28},
	  { -159,  -83,  540,  -51, -248,   20, -390, -254, -175},
	  {  778,  677,  407, -990, -836,  -76, -227,-1391, -248},
	  { 1109,  483,  252,  452,  259, -385,  495,  -54, -818},
	  {-1049, -991,-1106, -719, -324, -750, -434,  209, -184},
	  { -587, -444, -592, -711, -790, -534, -351, -545, -533},
	  {  202, -382, -787,  215, -512,-1201,  715,  -58, -475},
	  {  -55, -755,  132,  164,  -70, -434, -169, -107,  134},
	  {  185,  -25,  -21,  247, -254, -252, -321, -227, -421},
	  {   47, -626, -365,  119, -676, -314, -691,   19, -252},
	  {  454, -559,  520,  618, -849,  371,  245,-1071,   46},
	  {  168,  445,  170, -241,  421,   41,-1008, -979,-1081},
	  {   24, -672,  346, -563, -962,  480, -377, -375,  -18},
	  { -276, -221, -171, -609, -723, -292, -859, -712, -574},
	  {  150,  -17, -395,  -55,  117, -456, -258, -380, -560},
	  { -193, -410, -223, -717, -622, -517,  495,  631,  371},
	  {    4,  235,   91,   10, -496, -325, -347, -550, -389},
	  {   75, -121, -140,   81,  138, -210,  485,  968,  298},
	  {  459,  669,   18, -202, -230,  -82,   46,   20,   39},
	  { -159, -788, -858, -682,-1456,-1066,  105, -155,  -95},
	  {  421,  238, -260,  447,  305, -225, 1090,  408,  228},
	  { -357,  -37, -121,  136,  285,-1130,  -32, -281, -970},
	  {  850,  534,  299, -221,-1400, -710, -154,-1357, -116}},
	
	 {{ -622,  659, -278, -393, -156, -719, -152, -343,-1273},
	  { -675,  202,  452, -350,  185,  823, -235, -259,  232},
	  { -150,  236,  753, -125,  491,  465,  -53,  -14, -106},
	  { -170,-1141,    1,   86, -439, 1063, -597, -787,  851},
	  { -188,-1819,-1517, -435,-1562,-1405, -822,-1725, -559},
	  { -871,-1361, -497,-1058, -692, -298, -973, -155, -421},
	  {   19,-1386,  498, 2112, -994,-3449, 1433,  741,-1460},
	  {-1814,-2098,-1674,-2165,-1921, -873, -961, -405,  350},
	  {  426,  -33,  704,  168, -259,  911,  -43, -113,  240},
	  { -324, -857, -644,  -25,-1249,-1038, -207,-1149, -555},
	  {  370,  398,   49, 1010,  -48, -267,  306, -497, -552},
	  {-2323, 1941, 1054,-2810, 1648, 1692,-2309,  -24, 1991},
	  {-2145, -292, 1095, -240,-2288,  897,  744, -725, -320},
	  {  234, -499, -333,  169,   -7, -217, -331,  -28,   92},
	  {-2521, -721, 1969,  268, 3448, 1458, 2272,  923,-1748},
	  {  847, 1216, -684, 1475,  557, -148, -192,  511,   15},
	  { 1891, 1452,  960,  948, 1012,  293,  322,  133,  -13},
	  { -160,  335, -295,  565, 1205,  139, -441,  -23, -124},
	  { -571, -395,  -16,    3, -703, -846,  246, -105, -148},
	  {  -95, -259, -356, -324, -723, -382,  329, -619, -236},
	  {  -68, -336, 1083, -631, -965,  438, -544,-1543,  266},
	  { -278,  766,    0, -715,  998, -394, -702,  266, -925},
	  { -399,  422,  697, -485, -242,  531, -436,  236,  679},
	  {  496,  209,  247,  224, -472, -284, -259, -549,  -39},
	  {  807, 1251, 1749,  800,  618, 1024, 1101, 1290, 1591},
	  { 1276, 2465, 1268, 2013, 1679, 1138,  -73,  331,  577},
	  { 1311,  486,-3007, 2318, 1874,-3991, 1836, 1225,-2678},
	  {-1805,-1701, -499, -509, -352,  -86, -318,  260, -229},
	  {  -16,  199, -592,  150, -520, -148, -413,  -97, -956},
	  { -825,-1693, 2586,-2160,-1875, 3794,-1333,-1118, 2410},
	  { -827,-1297,-1763,  293,  143, -342, -282,  572,  180},
	  { -430, -295, -635, -636,-1188, -353,  159, -720, -416},
	  { 1192,  219, -427, 1239, 1163,   66, -624, -670,-1175},
	  {  324,  762,  167,  261, -503,-1226, -522, -908, 1036},
	  {  -38, -303,  455,  181,  142, 1043,  411,  741, 1202},
	  {   24, -440,-1042, -372,   17,  405, -300,  -54,  783},
	  {  -24,-1050,-1051, -406, -917, -782,  -64,  196,  662},
	  {   -9, -196,  518, -529,-1330, -556,  -10,    8,  708},
	  {  395,-1548,  518,  609,-1193, -666,  318, -128, -810},
	  {  173,-1105,-1003, 1383,-1501, -428, 1141,-1218,  -18},
	  { 1710, -171,-1318,  180,   33, -119, -337,  547,  806},
	  {  505, 1124, 1395, 1623,  700,-1354,-1728,-1464,-1187},
	  {  991, 1106, 1231, 1176, 1917, 2397, 1173, 2148, 1732},
	  {-1123,-1944,-1301, -263, -770,-1060, 1008,  470, -750},
	  { 1183,  405, -152,  916,  272, -151, -159, -703, -441},
	  {  -95,  159, 1042,   -3,  112, -169,   26, -252, -563},
	  {-2110,-1818, -779,-1689,-1983,-1131,-1014,-1170, -984},
	  { -487, -770, -822,-2740,-1277,  222,-1558, -754,  397},
	  {  373,-1213,-1466,  638, -644,-1142,  831,   69, -306},
	  { -235,  423,-1143, 1624,  590, -853, 2296,-1262,   48},
	  { 2054,-2046, 1469,   62,  743,  -54,-1982, 2807, -518},
	  {  -83,  223, -221, -312,  202,  752, -445, 1016,  874},
	  {  291,  964,  823, -663, -114,  211, -219,  226, -164},
	  {  600,  730,-1052, 1091,  670,-1975,  945, -555,-1555},
	  {  252,  163, -320,  184, -416, -787, 1003, -774, -187},
	  { -697,-1439,-1648,  107, -799,-2599, 1183, 1152, -328},
	  {  906, -221, -266,  353,-1173, -293, -446, -849,  115},
	  { -562, -637,  -69,  153,  592, 1136,  316, -237, -379},
	  {  825, -387,-1500, -102,  172, -154,  -26, 1189, 1752},
	  { -855,  402, 2162, -670, -367,  541,  -94, -662, -836},
	  {   73, -231, -134,  582,  592,   82,  165,  223, -472},
	  { 1530,  744, -842,  686,  263, -713,  164,  251, -934},
	  { -135,-1292,  388, -399,-1105, 1252, -197, -387, 1349},
	  {-1501,-2717, -357, -405,  462, 1568, 1436, 2296, 1297}},
	
	 {{  169, -299,  142,   39, -358, -280,  322,   36,  405},
	  {  -45,  253, 1066,  -28, -445,  210,  125,   -8,  391},
	  { -624,  279,  237, -910,  303,  528, -536,  390,  607},
	  {  -78,   51,  930, -282,   25,  795, -794, -178,  143},
	  { -132, -110, -471, -563,   51, -274,   52,  398,  174},
	  { 1614, 1530,  590, 1935, 1641,  538, 1510,  612,   11},
	  {  711,  -81, -476, 1058,  375, -557,  215,  -96,   58},
	  {  436, -858,  296,   95, -756,  699,  142, -408,  814},
	  {  708,  -18, -862,   71, -542, -953,  319,  252, -582},
	  {  703, -449,  256, -913,-1115, -254, -783, -615, -211},
	  {-1112,   34,   88,  554,   32,   48,  812,   27,   55},
	  {  275, -170, -344, -117,  316, -206, -145,  751,   58},
	  {-1051, -352,   86, -293, -718, -245, 1148,  350, -137},
	  { -201, -674, -383,  376,  -69, -161,  722,  292,  614},
	  { -151,  -91,  765, -334,  484,  480,  624,  103, -711},
	  { -530, -439, -226, -444, -153,  -83, -280,  546,  -24},
	  { 1531,  971, -519, 1619, 1042, -174,  838,  990, -115},
	  { -331, -448, -583,  -28,  294,   88,  466,  743,  738},
	  {   43,  329,  334, -158,  -18,  595, 1218, 1383, 1173},
	  {-1006, -566, -234, -348, -157,  425,  247, -140, 1141},
	  { -104, -360,  -10,  575,  117,  546,  993,  409,  300},
	  {  182,  228, -272,  679,  633,  329,  312,  559,  386},
	  {  177, -604,  102,  330,  305,  341,  302, -272,  115},
	  {-2448,-2730, -193, -532, 1135,  291, 1627, 2238,  294},
	  {  619,  489,  393,  191,  -43,  201,  158,  241,  415},
	  {  149, -184,  -45,  182,  999,  -68, -290,  184,  -12},
	  {  398,  882, -294, -191,  625, -868,  289,  509,   36},
	  {  534,  822,  719, -992, -843, -146, -321,  -91, -291},
	  {  904,   33,   56,  348, -174, -142,  418,  347,  736},
	  { -542, -182,  121, -857,   15,  363,-1031,  143,  -14},
	  {  448, -127,   25,  261,-1010, -693,  823,  105, -543},
	  {  -52,  -98,   42,  -70, -341,  670, -240, -917,  567},
	  { 1217, 1296,   75,  288,  123, -515, -429, -495, -187},
	  {  954, 1485,  950,  550, -348, -584, -922,-1325,  599},
	  {  108,  133,  -34,  -93,  284,  -14, -267,  -70, -119},
	  { 2858, 3560, 2977, -470,  -27,  558,-3228,-3808,-2794},
	  {-1204, -840, -494,-1271,-1293, -799, -428, -315, -238},
	  { -614,  171, -448, -304,  146,  218,  -14,  256,    5},
	  { -104,  172,  438,  286, -232, -431,  466,   47, -281},
	  { -366, -514,-1340, -174, -590, -763,   36, -599, -557},
	  {  503,  350,  204, -326, -292, -505, -135, -207,   77},
	  {  462,  237,  425, -157,  -27,   61, -973, -300,  162},
	  {  686,  569, -797,  759,  438, -398,  127,  363,  -99},
	  { -407, -900,-1368, -156, -471, -730,  186, -593, -558},
	  {  821,  227,  343,  687,  143,  420,  130, -153,  696},
	  {  135,  803,  257,  -82,  459, -295, -222, -291, -880},
	  {  237, -348, -550,  561,  270,  -96,  385,  628,  533},
	  { 1049,  342,  129,  106,  131,  161, -250, -736,  106},
	  {  948, 1742, -357, -276, 1790,  626, -661,  632,  905},
	  { -347,  -97,  525,  -60,   41,  156,   84,  606,  439},
	  {  776,  496, 1122,  461,  388,   31,  140,  475, -651},
	  {  614,  299, -814,  332,  103, -862,  311,  164, -444},
	  {-1021, 1021,  708, -419, 2850, 1504, -494,  709,  863},
	  {  785,  -94, -932,  525,   15, -452,  345, -336,  155},
	  { 1175,  335,-1598, 2067,   59,-2740, 2307,  395,-2158},
	  { -331,  404,  748, -519,  -44,  600, -675, -325,  144},
	  {   66,  -12,  234, -249,  276, -200, -215,  -70,-1217},
	  { -748, -326, -151,  384,  178,   64,  380,  312,  588},
	  {  366,  705,   87, 1435, 1757,  490, 1596, 1000,  414},
	  { -454,   -6,  142,  486, -250,   50, 1027,  929,  558},
	  {  612,  455,  451,  -60, -561, -474, -452, -484, -292},
	  {  556,  720,  282,  434,  -25, -122,  267,  -40,  -19},
	  { -276,  558,  390, -699,  140,   33, -911, -207, -344},
	  {  716,  658,  974,-1027, -719, -820,  144, -259, -273}},
	
	 {{   55,-2361,  560,  270,-3303, 1067, -132,-2109,  684},
	  {  264, -338,  285,  389, -288,  341,  514, -512,  -42},
	  {  -40,  121,  311,   66,  -93,  160,  363, -424,  122},
	  { -967, -239, -455, -288, -288,  150, -696, -628, -461},
	  {-3221,-4085,-2004,-4216,-5198,-3932,-2371,-3736,-2497},
	  {  -26,  248,  301,  152,  648,  165,  210,  647,  154},
	  {  225, 1201, -704,  193,  882, -257, -266,  475, -521},
	  {  746, -535, -434,  855,  298,-1037,   61, -490, -691},
	  {  293,  473,  574, 1045, -837,  571,  381, -563,  288},
	  {  286, -207,  -60,  793, -219,   53,  289,  526,  -66},
	  { -233, -477,-1365,-2998,-3206,-1630,-1472,-2035,-1234},
	  { -459,  990,  -76, -275,  805,    7, -390,  351,  -97},
	  {-1083, -316,  198,-1726, -972,  177,-1157, -786,  174},
	  { -330, -861,   27,-1527,-1861,-1490,-1182,-1420,-1025},
	  {  158,  -57,  -90,  270,  -49, -268,  195,  349, -881},
	  {  143,  159,  126,  594,  559,  240,  434, -310,  291},
	  {  247,  313,  464, -179,  -67,  286, -258,  172,  105},
	  {  588,  507,  175,  130,  288, -858,   82,  601, -153},
	  {  105, -541, -272, -353, -648, -275,  -12,  210,  -11},
	  {  -90,  -37,  293,  -98,    4,   42,  215, -657,  620},
	  { 1043, -139, 1165,  793,-1448, 1065,  128,-1476,  952},
	  {   69,  347, -104,  207,  466,  202, -147, -276, -371},
	  {  826,  -58,   73,  802,   99, -500,  448, -164,  365},
	  {  211,  -39, -278, -120, -462, -198,  -63, -223, -136},
	  { -793,-3006,-3375,-3625,-4748,-4027,-2701,-3395,-1424},
	  { -320, -156,  483,  282,  150, -213, -101, -205,   48},
	  {  535,-1177,  242,  448, -637, -730, -108,  -51, -244},
	  {  810,  386,  684,  881, 1413, 1145, -507,  -44, -280},
	  {  240, -425,  375,  479, -179,  311,  326, -200,  388},
	  { -513,  596, -239,   46, -232, -128,  375, -946,  315},
	  {  -65,-1025,  154, -379, -663,-1216, -106, -450,-1124},
	  {  779, -169, -392,  983,  208,-1122,  443,  155, -386},
	  { -283,  475, -227, -325,  481, -355, -446,  368, -462},
	  {  542, -941,  -80, -760,  458,  757,  633,  160,-1126},
	  {-1346,-1328,-1205,-1057,-1034, -903,  -70,  -73,  147},
	  {  121,  278,  240, -385,  600, -572,  166,   -1,   43},
	  {  161, -236,   85,  -80, -173, -289,  145, -317,  205},
	  { -886,  498,  -19,-1839,  223,-1199,  -36, 1136, -138},
	  { -432,  339,  503,-1389, -306, 1523, -428, -988,  984},
	  {  -63, -588, -746,   51,  105, -308, -182, -270, -189},
	  {  484,   62,  749, -358,  749, -504, -383,  466, -253},
	  { -422, -112, -258, -156, -648, -854, -456,-1190,-1012},
	  {  663, -339, -332,  337,  -87, -204,   43,  -41,  410},
	  { -378, -850,-1498,  280,  905, -233, -181,  537,   64},
	  { -661, -530, -503,  -41,   65, -502, -280,  196,   63},
	  {  604,  189,  407,  397, -182, -307,  194, -219, -173},
	  {  236,  -12,  661,  301,  -24,  293,  461,   97,  -63},
	  {-1908,  435,  181, -622,  561,  272,  169,  786,  798},
	  {  105, -575,   48,  -96, -159, -446,  290, -508,  -43},
	  { -730,-1843,-1378,-1396,-2765,-2557,  -13,-1362,-1420},
	  {-2097,-1924,-1427,-2082,-2272,-1960,-1685,-1264,-1175},
	  { -107, 1041, -962,  312,  948, -739,  134,  279,  -73},
	  { -256,  343,  254, -331, -450, -199, -109,  429,  341},
	  {  196,  639, -557,  490,  368, -249,  124, -133,  218},
	  {-1118,-1049, 1392,-1440, -696, 1340, -456, -205,  488},
	  {-1292, -625, -671,-1159, -998,-1197,  123,  382,  -95},
	  { -419,   -3, -288,  128,  162,  239,  380,  -31,  216},
	  { -231, -240, -361, -254, -526,  165, 1068, 2143,  743},
	  {  367,  200,  372,   92,  101, -248,   11,  318,  160},
	  {  339,  -57,    9,  311,  532,  108, -223,  188,  342},
	  {  138, -476,  130, -396,   53,  259, -253,   91,  332},
	  {  273,  149,  713,  257,    3,  405,  118, -315,  219},
	  { -233,  276,  367, -568,  252,  529,  149,  536,  511},
	  { -386, -223, -210, -176,  505, -744,   88,  490, -415}},
	
	 {{ 1075,  787,   42,  954,  397,  -46,  461,  245,  -71},
	  { 1055,  951, 1133,  404,   97,   73,  811,  708,  412},
	  { 1092, -708, -145, 1198, -999, -499, 1073, -895, -498},
	  {-1734,-1663, -688, -385, -118,  948, -394, -631,  340},
	  {  655,  737,  359,  745,  381,  350,  802,  949,  568},
	  {  504,  420,  663,  727,  447,  661,  602,  916,  693},
	  {  124,  288,  -44,  262,  342,  258,  215,  -25,  102},
	  { 2485,  598, -970, 1663, -165,-1201,  298, -601, -622},
	  { 1456, 1733, 1284,  254, -129, -393, -236, -301, -650},
	  {  807,  430,  426,  453,  396,  447,  838,  967,  497},
	  {  124,  840, -132,  303,  185,  -23,   -7, -139,  147},
	  { 1167,-1817,  729, 2756,-2428, -262, 2863,-1380, -761},
	  { 1091,-1102,  224,  616,  638, -179, -567,  768, -438},
	  {  172,  172,  376, -265, -622, -324,  311,  217,  227},
	  { -166, -450,  978,-1022,  306,  611,   58,  694, -178},
	  { -614,   38, -756,-1376,-1168,-1556,-1780,-1468,-1640},
	  {  553,  968, -318, 1528, 1068,  160, 1129,  762,  110},
	  { 1375, 1385,  112, -607, -598, -980,  150,  265,   -1},
	  { -270, 1110,  738,  278, 2207, 1384, 1445, 2112, 1536},
	  {  894,  902, 1216,  407,  254,  569,  168,  180,  402},
	  { 1159,  133,  452,  722, -443, -307,  622,   20,  210},
	  {  727, 1609,  510,  876, 1957,  882,-1072,  -75,-1299},
	  { -623,  186,  586, -668,  804,  358, -705, 1047,  683},
	  {  157,  468, -327,  362,  222, -526,  204,   92, -240},
	  {  288, -667, -604,  248, -123,  -54, 1091,  690,  737},
	  { -619,  454,   41, 1199,  561, -948,  744, -702, -644},
	  {  -26,  433, -203,  140,  420,  141,  466,  195,   15},
	  { 1456, 1870, 1889, -558,  182,  458,-1069, -690, -348},
	  {  479,  270,  424, -387, -637, -414,  723,  613, 1113},
	  {  -11,  104,  -87,  176,   42, -106,  441,  426,  276},
	  { 1075, 2222,  304,-1174,  772,  879,-1530,-1573, -385},
	  { -252, -592,   76, 1221, -342, -426, 1799,  450,-1007},
	  {-1239,-1047, -253, -937, -616, -671,  721, 1670,  701},
	  { -975,   55,  359,  347, 1713,  424,  538, -341,-1328},
	  { -664,-1006, -647, -303, -638, -439,  272,  386,  517},
	  {  409,  297,  232, -195, -103, -450,   90,  194,  168},
	  { -451, -404,  222, -405, -145,  263,  381,  341,  626},
	  { -664,  354,  131, -903, -767, -677, 1320, 2087, 1193},
	  { -248, 1620,  490,-1642,  -89, 1340, -571,-1502,  443},
	  {  351, 1053,  -26,   53,  808, -119,  901, 1267,  444},
	  { -947,  517,  591, -452,  633,  170,  847, 1365,  480},
	  { 1478, 2051, 1418, 1284, 1016, -434, -888,-1654,-1824},
	  { -181,  500,  974, -400, -127,  604,  312,  483, 1140},
	  { -236, 1226, -363,  227, 2108, 1529,-1711, -227,  940},
	  { -228,  167, 1150, -683, -367,  940, -951,  -70, 1232},
	  { -456, -288, -362, -224, -356, -409,   79, -207, -170},
	  {  753, -303,-1213, 1120,  269,-1379,  775,  237,-1103},
	  {  -39, -412, -345,  569,   15, -374,  700, 1388, 1411},
	  {  173, 1413,  277, -463, 1185,  997, -495,  708,  840},
	  { -366,   94,  191,   25,  339, -393,  733, -113, -329},
	  { 1433, -362,  251,  278,  691, -195, -800, 1030, -227},
	  {-1092, -836, 2209,-1280,-1052, 2619,-1705,-1046, 2070},
	  {   43, -949, -441,  641, -953, -118,  510, -160,  417},
	  {  161, -105,  549, -568,  348, 1598, -684,  995,  911},
	  {  269, -265, -250,  278, -605, -785,  639, -566,-1036},
	  {  123, -234,  -91,  380,  289,  307,  553, 1071, 1367},
	  {  -58, -106, -381,  236,  681,  238,  537, 1514,  476},
	  { -536, -772, -409,  -57, -276,  116, 1488, 1505,  411},
	  {-2248, -830,-1132, -491, 1138,  100, 2316, 3387, 1903},
	  {  598, -560,-1382,  380, 1296,  243, -619,  877, 1109},
	  { -182, -533, -236, -879,-1047, -583, -619,   -4, -141},
	  {  867, -109, -236,  165, -590, -501, -613,-1362,-1039},
	  {  970, -127,  376,  951,   61, -417, 1147,  -70, -424},
	  { 1607, 1374,  385, 1066,  530, -541, -319,-1180,-1141}},
	
	 {{ 1130,  854,  353,  311,  390, -142,  460,  667, 1596},
	  {  349, 1099, 1771,-2496,-2400,-2688,-2450,-2898,-2474},
	  {  944, -513, -525,  215, -870, -508,  -77,-1045, -470},
	  {  540, -542, 1257,  253,  -39, 1851, -238,  -22,  692},
	  {  232,  -59, 1252,  706, -176,  -86,  724, 1177, -123},
	  { -308,-1285,   38, -871, -753,  894,-1176,  304,  279},
	  {  325, 1347,  276, -189, -705,  563,   91, -280,  193},
	  {  276, -348, -348,  146, -733, -171,   -4, -931, -171},
	  { 1007, 1400, -767, -503,-2002,-2257,-1864,-1283, -905},
	  {  870,  927,  562, -161, -233,   78, -199, -452,  -75},
	  { 1308,  409,  175, -410, -344,  243, -947, -144,   76},
	  {  907,-4277,-1129, 1977,-2171,-1807, 1087,  656,-2090},
	  { 1145,-1775, -880,  173,  718,-1084,-1252, 2116,  689},
	  {  454,  924, 1136, -458, -986, -498,-1102, -999, -635},
	  { -898,-1026,  457, -255,  454,  427,  -54,  557, -596},
	  { -160,  413,  446, -234,  454,  212, -722,   20, -171},
	  { -671, -392, -305, -191, -313,  -97,  401,   91,  111},
	  { -265, -845, -210,  276,   54,  314,  584,  428, 1343},
	  {  366,  472,  -47,   75, -431,  478, -144,  528,  144},
	  {-2388,-2843,-1883,-1795,-2532,-1437,-2039,-2765, -497},
	  {  217,  -64,-1281,  532,  741,  -33,  869, 1083,  353},
	  { -496,  559, -645,  122,  829,   48, -443,  486, -258},
	  {-1014,  198,  488, -490, 2350,  982,  101, 2104, -540},
	  {  632, 1218,-1607, 1671,-1469,  730,-1633, -325, -431},
	  { 1271,  744,   32,  623, -315, -337,  180,-1067, -137},
	  {-1454,  292, 2035, 1216, 2228, -397,  882,-1050,-1792},
	  { -857, -756, -181, -542, -741, -632,  221, -517, -432},
	  { -203,  108,  200, -605,-1651, -665, 1287, 1363,  463},
	  {-1026,-2032,  -74,-1718,-1778, -647,-1245,-1965,-1091},
	  {  378, -190,  102,  411,  180,  517,  424, -376,  434},
	  {  -18, -280, -529,  268,  358,  219, -173, -267,  401},
	  { -812,-2368, -531, 1189, -100, -898,  -71,  753, -320},
	  {-1476,-2017, -814, -562, -410,  111, 1327, 1653, 1095},
	  {  122,   20,  218,  132,  188, -413,  -39,  -44, -317},
	  { -317, -478, -318, -521, -571,  -62, -220,   -9,  207},
	  {-1820,-1454,  786,  520, -438, -525,  789,  170,-1752},
	  { 1109,  -16,  801, 1238,  -59, -273, -206,   94,  479},
	  {  579, -365, -351,  919,  175,  300,  711,    0,  -47},
	  {  375, 1179, -583, -712,  204,  757, -609, -585,  716},
	  { -431, -654,-1068, -854, -313, -451,  -67,  163, -236},
	  {  804,  484, -625,  457,-1029, -795,  419, -953,-1508},
	  {-1407,  -39, 1476,  663, 1817,  295, 1186,   90, -893},
	  {  393, 1292, 1598,   87,  -92,  597, -503, -527,  -46},
	  {  673, 2677,  840,-1361,  419,  754,-1498,-1631, -189},
	  {  451, -306,  -91,  208, -150, -152,  407, -298, -244},
	  {  -24,  909,  317, 1237,  151, -884, 1223, -508, -420},
	  { -684,  638,  570, -752, -285,  932, -434, -637,  579},
	  {  929, -924,-1251, -198,-1861,-1720, -167,-1335,-1063},
	  {-1184, 1393, 1516,   69,-1125,  817,  243, -201,-1526},
	  { -649, -525, 1452, -877, 1162,  236,  302,  851,-1489},
	  { 1012,-1584,  537,  -61, -446, -171, -515, 2254,   85},
	  {-1172,-2518,  415,-1120,-2351, -170, -909,-1726,  652},
	  {   89,-1123, -324,  688,-1745,  187,  374,-1911, -812},
	  {-1830,-1197, 1366,-2499, -372,  968,-2024, 1505,  388},
	  { -242,  544,  998, -359, 1426,   -3,   17,  884,  115},
	  { -108, -325,    0,  651,  609, -499,  382,  930,  120},
	  {  -17, -178, -179,  662,  715,  869,  612,  888, -315},
	  {  207,  225, -167, -796,-1488,-1282,  149,   39,  523},
	  {  768,  322,  -28, -401, -497,   12,  -54,  107,  -23},
	  { -134, -748, -381,  -18,  925, -419, -849, -282,  484},
	  {-1173,-2833,-2351,-1282,-1632, -628,   38, 1337, 1776},
	  { 1283, -737,-2253,  665,-1516,-1680, 1521, -722, -866},
	  {  420, 1563,  177, -201, 1188, -169,  337, 1228, -673},
	  {  787,  835, 1206, -330, -379, -467, -709,-1158, -751}},
	
	 {{ -217,  436,  998, -820, -485,   81, -423, -649, -348},
	  {   56,  109,  568, -184, -556, -134, -236, -259, -103},
	  {  433, -676,  -71, 1098,-1091, -123,  716,-1007,  182},
	  {  263, -928, -701, -318,-1137, -852, -596, -812, -830},
	  { -259, -666, -614, -252, -228, -460, -125, -195, -276},
	  { -479, -625, -741, -582, -805,    2,   -1, -428,  401},
	  {  758,-1055,-1151,  930, -926,-1641,  294, -163, -341},
	  { 1769,  910, -121,  707,  489, -135,  540,  133,  -82},
	  { 1112, 1618, 1477,  683,  -96,   23, -364, -214, -284},
	  {  191,  474,  568,  657,  518,  507,  178,  287,  286},
	  {  982,  640, -121,  624,  100,   -9, -657, -209, -441},
	  {  538, -982,  -91,  803,-1128, -528,  925,   60, -184},
	  { -594,-1400, -374, -553,-1143,  -93, -123, -462,  894},
	  {   -1,  458,  695,   61, -567, -167,  -70, -350,   -1},
	  { -173, -921, 1260,-1170,  779, 1539, -228, 1468,  227},
	  { -288, 1118,  928,  853, 1079,   69,  -52, -416, -402},
	  { -551,-1071, -922,  896,  408,  118,  826,  182,  828},
	  {  504, -223, -136, -930,-1518,-1127, -241,-1119, -851},
	  {  687,  563,  415,  457,  303,  391,  429,  182,   79},
	  { -140,  335,  -51,  140,  156,  234, -511, -327,  437},
	  { -450,  361,  229, -678,  321,  856, -545, -345,   66},
	  {  743,  961,  284,  796,  787,  559,  -43,  317, -520},
	  { -229,  166,  560, -986, 1010,  406,-1030, 1113,  235},
	  { -300,  383,  696,  144,  128,  191, -325, -150, -204},
	  {  274, -318,  198,  271,  642,  388,  386,  718, 1041},
	  {  197, 1808, 1397, 1549, 2843, -273, 1161,  141, -171},
	  { -918, -153,  110,-1028,   82,  194, -681,  144,  854},
	  { -973, -910, -365, -651,-1592, -996,  -22, -345, -345},
	  { -386,   41, -139, -510,  -69, -480, -651, -260, -146},
	  {  793,   -5, -701,  225,  -84,-1074,  443, -323, -813},
	  {  953,  424, -125,  132, -311,  593, -383, -880, -150},
	  { -501, -972, -152,  944, -751, -583, 1640,  579, -586},
	  { -411,-1726, -976, -193, -790, -650, 1822, 1870,  676},
	  { -686, -986,  448,  -97, 2114,  775,  301, -116, -221},
	  { -402, -522, -443, -399, -234,   67, -293, -114,  -63},
	  { -108,-1496,-1216,  -81,  229,  -91,  517,  723,  437},
	  {  288, -288, -155,  402,  138,  252,  -42, -109,   84},
	  {  345,  182,  -80,  -83, -272, -482,  101,  248,  291},
	  { -145, -300, 1772, -324,-1109,  227,  -31, -675, -224},
	  {  375,  852,  432,  460,  247,  630,  375,  314, 1120},
	  { 1267,   -8, -484,  376,  439, -264, -411, -232, -184},
	  { -112,  724, 1311,   88, 1137,   -2, -373, -644, -948},
	  { -833, -345,  205,-1094, -452,  142, -638, -167,  275},
	  { -495,  225, 1325,-1764, -541,  414,-1398,-1664, -126},
	  {  458,  855,  860, -307,   46,  476, -332, -348,  284},
	  { -741, -542, -423, -450, -272,  -61,  232,  161,  353},
	  {  642,  186, -153,  387,  318, -214,  145,   48,  -26},
	  { 1856, -321,-1102,  269,-1281, -940, -281, -772,  341},
	  {  557,   19,  270,  743, -231, -321,  310, -156,   -5},
	  { -555,  673,  795, -447, 1550,  528,  970, 1829,    1},
	  {  747,  849,  525,  177, -122,  713,  402, -623,  506},
	  {  452,-1180, 1159, -856,-1332, 2449, -818, -780, 2311},
	  { -231, -392,-1545, -280, -709,-1166, -577,-1072, -814},
	  {   82,-1511,  478,-1070, -910, 1174,-1214,  270,  571},
	  { -205,  620, 1293, -565,  567,   61, -481,  599, -447},
	  {   32, -140, -861, -228,  -94,   94, -528, -108,  178},
	  {  128, -508, -108,  181, -368,  266, -272,  -55,  705},
	  { -341, -440, -236,   89, -744, -305, 1126,  542,  190},
	  { -951,-1403,-1283, -650,  300,  228,  -98, 1650,  654},
	  {  320,  -78,  604,  192, -691, 1229,  245, -479,   -7},
	  {  842,  -23,   23, -685,-1270, -809, -539, -549, -861},
	  { 1306,  306, -979, 1447,   30,-1108,  233,   60, -991},
	  {  192, 2308,-1273,  276,  783,-1374,  212,  873, -353},
	  { -180, -162,  425,  114,  550,  473, -122, -557, -433}},
	
	 {{  722,  958, -306,  -73,  977,-1203,  157,  845, -756},
	  {  701,  527,  916, -494, -935, -423,  -32, -121,  423},
	  { -233, -395,  -14,  -46, -216,  -98,  146, -798, -557},
	  {  473,-1183,  536,  170, -727,  285,  566,  345, 1444},
	  { -276, -152, -751, -369, -133, -281,  201,  887,  352},
	  {  228, -313, -612,  255, -443, -328,  370, -599, -151},
	  {  253,   68, -473, 1562, 2380, -713, -188,  435,  102},
	  { -918,-1400, -192,-1269,-1082,  402, -531, -195,  763},
	  { -260, -359, -533, -548, -189, -658, -182,   48, -212},
	  {   88,  192, 1013, -228, -135,  509, -516,  -13,  978},
	  {  -61, 1612, -175, 2433, 2435, -225, 1708,  691,  198},
	  { -244,  776, -464, -646, 1169,   86,-1114,  107,  -68},
	  {  237,  411, -738,   94,  404,   11,  502,  217,  379},
	  {  243,  347, -228, 1043,  888,  436,  -20,   23,  -18},
	  {-1134,  540, 1606,  107, 1200,  -77, 1543, -274,-2065},
	  { -824, -514, -448,-1007, -309, -261,-1125,  -82,  -16},
	  {  170,-1414,-1686,-1219,-2805,-1424,  141, -149,  551},
	  {-2183,-1462,-1097, 1014, 1208, 2023,  296,  999, 1004},
	  { -603, -629,-1137,-1488,-1626,-1335, -632, -719,  233},
	  { -857, -832, -220, -947, -873, -209, -469, -846, -142},
	  { -564, -431, -586, 1811, 1846, 1224,  996,  962, -213},
	  {   84, -367, -118, 1129,  703, 1296,  -61, -459, -493},
	  {  434,  137,  248, -941, -101,  919,-2029,  460, 1723},
	  {  507, -351, -126,  207,-1227, -534,  411,  -89,  426},
	  { -152,  813, 1123,  447,  595,  530, 1061, 1305,  -49},
	  { 1360,-1099, -573, -444, -257,  721,-1335, 1320,  740},
	  {  134,  227,   56, -469, -100, -517,  180,  495, -499},
	  { -479,  154,  -92, -558, -578, -894, 1417, 1998, 1647},
	  { -163, -577, -411, -877, -555, -681,-1363, -485, -825},
	  {  102,  144, -255, -216, -118,  -82,  -49,  231, -454},
	  { -803, -850,  790,-1157,-2371,-1233,  330,-1050,-1345},
	  { -822,   37,  624,-1244, -491,  591,   29,-1408,  -87},
	  { 1348,  879,  694,  373, -675,  306, -422,-1783,  -48},
	  { 2272, 3068, 1720,  940,-1548,-2545,-1387,-1992,  214},
	  { 1285,  956, 1214, 1188, 1108,  776,  736,  849,  507},
	  { 1101, 1859, 1099,-1921,-1608, -475, -490,-1208, -504},
	  {  374,   24, -408,  313, -117,   41, -358, -518, -523},
	  {  198,-1459,-1047, 1564, 1111,  972,   16,-1346, -353},
	  { 1329,-1674, -600, 2240, -476,-2091, 1002,  936,-1627},
	  {  114,  124, -223,  673, -137,  747, -395, -847,  223},
	  {  895,  336, -325, -364,-1736, -732, -672,-1873, -316},
	  { 1014,  499, -144,  336,-1501,-1569,-1012, -902,   96},
	  {  766, -574,-1176, 1063, -196, -369,  519,  -88, -795},
	  {  873,  937, 1653, -725, -736,  509,-1218,-1460,-1177},
	  {  -99, -979, -354, -371, -770, -287, -432, -641,   90},
	  { -202, -335,  303,  552,  328,  -14,  454, -200, -248},
	  { -674,  290, 1506,-1161, -635, 1247, -370, -327,  341},
	  {  603,  275, -586,   50,  303,    0, -907,-1019, -860},
	  {  196, -264,  110,  174, -551,   56,  269, -637,   49},
	  {  274,  965,  555,  -11, -115,  156, -781, -210,   85},
	  {  118, -974,  342,-1648,  -23,  812,-1109,  508, -296},
	  { -170,  412, -479, -217,  445, -517, -467,   84,  101},
	  { -447,  538,  -16, -141,  899,  246, -258, -290,-1007},
	  {  531,  116, -660, 1140, -200, -481, 1083, -974,  284},
	  {  526, -142, -383,  398,  -68, -516,  344,  133,  -73},
	  {  554,  287, -320,  939, 1514, 1400, -187,  307,  832},
	  {   58, -728, -887, -544,-1075,-1202, -808,-1103,-1233},
	  { 1225, 1917, 1624, 1798, 2669,  963,-3235,-4128,-2392},
	  {  377,  773,  113,  308,  593,  -26,  903,  673,  705},
	  {  823, 3311, 2740,-2529, -368, 1545, -585,-2300,-1273},
	  { -328,  -83, -439, -251, -455, -777,  597,  329,  443},
	  {  398, 1359,  390,  925,  648,   38,  620,  303, -270},
	  {  -55,  213,  823,  584, -123,   16,  -34, -975,-1117},
	  {-2499,-2589,  190, -824, -228, 1029, 2091, 1959, 1529}},
	
	 {{ -438, -704, 1018,  144, -620, 1156, -131,-1041,  651},
	  {  326, -207,  382,  389,   51, -119,  485,  318,  236},
	  { 1184,  -18,-1265, 1941,   89,-1488, 2354, -379,-1313},
	  {  359, -689, -257,  450, -434,  248,  144, -711, -105},
	  {  546,  -55,  156,  225,  198, -193,  134, -278, -467},
	  {-1866,-2243,-1876,-1540,-2002,-1316,-1001,-1534, -448},
	  {   84,  138, -510,  301,  584,  -63,  268,  459, -167},
	  {  571,   28, -292,  923,  200, -350, 1482,  432, -231},
	  {  -77,  604,  531, -276, -329, -680, -596, -568, -626},
	  {  433, -283,  971,  560,  178, 1087,  812,  653,  812},
	  { -519,  827, -159,  -75, -281,  287, -156, -854, -366},
	  { 1314, -503, -103, 1016, -370, -823,  453,  494, -957},
	  {  561,  566,  162, -500,  205,  232, -986,-1241, -154},
	  {   23, -102,  317, -397, -806, -454,  -50, -474, -436},
	  {  320,    4,-1129, -363, -977,  117, -711,   71, 1561},
	  {  244, -239, -317,  943,  844,  121, -429, -604,-1138},
	  { -129, -348, -727,  746,  701, -247,  742,  931,  -20},
	  {  920,  848, 1360,  471,  283,  163,  157, -404,  166},
	  { -452, -932, -773, -151, -234, -146,  478, 1304,  306},
	  {  893,  320,  393,  321, -271, -130,  286,   88,  599},
	  {  481,  898,  284,  182,  247,  365, -192, -742,  -27},
	  { 1131,  699,  367,  348,  -21, -470,  309,  188, -723},
	  {  178, -605,  706, -459, -832,  724, -167, -661,  240},
	  {  890, 2894,  618,  369,  128, -514, -937,-1335, -568},
	  {  130,  226,   27,   86,  355,  330,  407,  446,  669},
	  { -410, -199,  471, -498, -266, -102,  397,  180, -648},
	  {   19,  563,  128,  -71,  585,   13,  -64,  190, -634},
	  { -910,-1173, -263,  359,   22,  273,  917,  559, 1107},
	  { -183,   35,   50,  439, 1054,  388, -483,   28,  -94},
	  {  748,  472,  -59,  459,  232, -349,  451,  315,    3},
	  { 1644, 1943,  370, -764,  899, 1149, -807,  -33, -326},
	  {  -67, -912, -135,  889, -358,-1068,  760,  997, -542},
	  { -249,-1416,-1495, -195, -561,-1105, 1644, 2398, 1810},
	  { -863,-1801, -725, -535, 1504, 2081,   84, 1079, -993},
	  { -167, -284, -262, -177, -551, -634, -880,-1037, -806},
	  { -755,-2047,-2029,   96,  337, -648,  734, 2630, 2013},
	  { -422, -850, -471, -378, -759,  -56, -119, -433,   61},
	  { -460,   91, -738, -632,  233, -362,   82,  842,   45},
	  { -213,   81,  470, -681, -641,  959, -557, -616,  806},
	  { -594,  195, -650,   84,  913, -341,  859, 2540,  295},
	  { -317,  242,   91, -152, 1950,  783,  122, 2293,  914},
	  { -850, -146,   35, -163, 1003,  718,  364,  700,  204},
	  { -698, -664,  410, -666, -382,  311,  -86,  286,  796},
	  {  106, -339,  -50,   49, -401, -364,  482, -845, -311},
	  { -152,   -5,  189, -348,  152,    6, -156,  653,  581},
	  {-1467,-1659,-1453,-1366,-1744,-1324,-1163,-1559,-1375},
	  { 1118, -610,-1014, 1450, -100,-1079,  658,   28, -304},
	  {  532,  735,   57,  535,  -13, -295,  837,  344, -181},
	  {  978,   83, -175,  513,  750, -181,  376,  897,   90},
	  {  620, -368,  622, -131, -505,  296, -255, -110,   13},
	  { -252,  416,-1085,  460,  803, -572,  750,  146,  127},
	  {  924,   87, -702,  658, -374,-1108,  220, -458,-1352},
	  { -256,  259,   43,  609,  297, -492,  824, -151, -690},
	  { 1098,-1092,  380,  331,-1818, 1061, -458, -826, 1376},
	  { -753, -941, 1866,-1018,-1189, 1989, -728, -480, 1210},
	  { -605, -190, -320,  484,   43, -119, 1014,  466,  359},
	  { -598, -800, -175, -487,-1228, -434, -131, -231,  505},
	  {   59,   42,  323,  271,-1030,  113,  -58, -366,  111},
	  { -952, -193, -649, -743, -219, -408, -220, 1769,  563},
	  { -536,   39, -183,  476,  330, -119, -153,  -43, -290},
	  { 1623, 1261,  767, -538, -887,-1251, -301, -220, -192},
	  { -133, -336, -602, -147, -591, -429,  775,  489,  402},
	  {  587,   34,  -14,   29,   28, -355,   85,  399,  -35},
	  {  579, 1678, 1287, -640, -444, -580,  -67, -786, -713}},
	
	 {{ -229,-2746, 1562, -556,-3184, 2320, -632,-2543, 1087},
	  { -258, 1111, 1260,  874,  -58,  896,  705,  633,  730},
	  {  555,-1676, -973,  293,-2125, -737,-1199, -421,  334},
	  { -870, -823, -536,  479,  927, 1647,  314,  148,  422},
	  {-2197,-3639,-1100,-3005,-4106,-2653,-2450,-3746,-2183},
	  {-1025, -402,   93, -420, -603, -142, -393, -577, -499},
	  {  449, -191, -757, -409, -317, -576,  742,  -70, -960},
	  { 1011, -987,-1710, -554, -687, -739, -964, -626, -491},
	  {  882,-1092,   63,  185,-1187,  -87,    4,   73, -117},
	  {   31,   54, -301, -145, -674, -583, -572, -738, -472},
	  { -316,  537, -910, -799, -551, -170,  144, -135,  463},
	  { -543,  691,  513, -784,  297,  880,-1272,  341,   15},
	  {  188, -272,  104, -759, -260, -129,  349, -183, -129},
	  { 2922, 2813, 2783,  584, -630,  631, -588, -989, -513},
	  {  582,-1664, 1619,-1504,  745, 1480,  786, -249, -708},
	  { 1393, 1129, -474,   -8,  439,  314,  -79, -424,  388},
	  { 1167,  560, 1817,  183,  129, -499, -697,  -87,  -18},
	  {  895, 1626,  144,  582, 1044, -383,  -43,  674, -184},
	  {   77,   96,  453, -776,  143, -606, -379, -555,  143},
	  {  194,  -28,  267,  434,  249,   -4,  865, -236,  220},
	  {  968,-1140, 1539,-3794,-6664,-2617,-1816,-4159, 1399},
	  { -515,  419, -408, -115,  507,  -37,-2671,-2558,-2615},
	  {-1616, -346, 1655,-1048,  -37,  832, 1033, -237,-1585},
	  {  135,  -38,  127, -270, -586, -177,   71, -135,  152},
	  {  103, -970, -517,-1359,-2199, -969,-1092,-1783, -196},
	  { -585, -280,  170, -112,-1108, -268, -155, -494,  454},
	  {  260,  625, -817,  653, -103, -889,  833,-1010,  170},
	  { -457,-1014, -340,  872,  257,  587, -529, -390,   39},
	  {   22,   -3, -300, -170, -384, -119,  225,  196,  233},
	  {  726, -952,  346, -305, -600, -354, -317, -343,   -9},
	  {  296,  721, 1149, -601, -421, -382, -373,  161, -208},
	  {  922,-1179, -447, 2266, -800,-2705, 1293,  612,-1890},
	  {  222,  485,  195,  604, 1848,  386, -191,  858,  -58},
	  {-1733, 1302,  -83, -300,  916,-1722,  366,-1168, -990},
	  { -586, -327,  -31, -924, -712,  -92, -400,  196, 1048},
	  { -417, -761, -933, -719, -783,-1078, -332,  580,  804},
	  { -808,-1010, -804, -782,-1129,-1372,  231,  139,  361},
	  { -525, 2855, 1358,-4615,-3612,-3352, 1975, 4611, 1781},
	  {-1671,  -46,  789,-1160, -227, 1107, -363, -489,  514},
	  {  202,  857,  -40,  -30,  897, -368,  282, -222,  201},
	  {  741, 1441,  496, -308,  791, -301,  260, -179,   92},
	  { -363,  754, 1262, 2412,  708,-1259, -631, -473,  654},
	  { 1187,  562,   45,  627,  -83, -411,  720,  415,  164},
	  {  -11,-2352,-2470, 1673,  457, -999, 1004,  668,   44},
	  { -434,  336, -182, -288, -276, -594,  260,    0,   -6},
	  {  479,  -13,  257,  618,  134, -268, -109,   48, -306},
	  { -144,  701, -122, -391, -468,  458, -104,   74,  -99},
	  {-1384, -211, -300,  141,  470, -888,  -81, 1762, 1999},
	  { -920, 1201,  584, -220,-1006,  776,   26, -856, -437},
	  { -698,-2222,-1682, -236,-2013,-2011,  785,-1412, -687},
	  { -991,-2517, -731,-1034,-2051,-1257, -617, -138, -547},
	  {  168,  527,  -91,  567,   91,   85,    3,  -18,  328},
	  {  159, 2417, 1458,   64, -215, -348, -664, -653, -509},
	  {  727,  225, -740, 1028, -397, -785,  364, -845, -250},
	  {  229, -542, -543, -919, -523,  229, -939, -277,  729},
	  {   61,  468,  898,  386,  121,  658,  466,  -85, -119},
	  { -484,   16,  -80,  -72,  262,  -32,  586, 1498, -160},
	  { -600, -813, -702,-2614,-3219,-1097, -566, -527, -693},
	  {  572,  970,  796, -284, 1715, -502,  834, 1321,  456},
	  { 1449, -719,-1067, -677,  896,  714, -572,  121,  936},
	  {-1732,-1924,-1752, -184, -520,  329, -520,  137,  593},
	  {  686,  327,  714, -469,  247, 1143, -222,    9,  272},
	  { -216,-1381,  761,-1766, -551, 1809,-1227,  265, 1275},
	  {   28, -283, -772,  262, -456, -675,  878,   77,  254}},
	
	 {{  492, -466, -343,   52, -671, -495, -769, -394,  -91},
	  {  300,  187, -447, -627,-1020,-1752,-1013,-1247,-1553},
	  {  124, -681, -780, -422,-1040, -417,  318,   -8, -124},
	  { -769, -301, -395, -479, -342, -743, -570, -228, -161},
	  {  579,  878,  639,  821, 1079, 1102,  552,  539, 1043},
	  { -203,  317,  295,  255,   27,  133,  489,  218,  335},
	  { -654,  686, 1262, -915,  709, 1654,  131,  674,  507},
	  { -366,-1564, -339, -761,-1449, -587, -768, -397, -270},
	  {  699,  146, 1457,  724,  133,  346,  899,  748, 1115},
	  {  119,  -18,   -2, -235,  314,  278,   60,  -62,  334},
	  {-1098, 1296, 1154, -150,  527,  299,  650, -178, -192},
	  {  528,-1895, -558,  917,-1661,-1461,  630,  327,-1560},
	  { 2895, 2065, 1028, 1503, 2470,  657,  -94, 1929,  560},
	  {  421,  302,  -51,  105, -337,   62, -513, -176,   15},
	  {  766, -380, -776,  -48,-2210, -437,  125, -940, 1295},
	  { 1279, 1472, 1100, -134, 1423,  953,  982,   33,  637},
	  {  260,   22,  624,  194,  298, 1022,  155,  -78,  154},
	  {-1702,-2532,-1376,-2404,-3155,-2216,-1433,-2104,-1498},
	  {  135, -418, -389, -183, -465,   77,   20, -157, -111},
	  {    5,  566,    9,  446,  397, -135,  400,  502, -371},
	  { -570,-1164, -642, -588,-1913,-1098,-1338,-1664,  -26},
	  { -724, -300, -508, -799, -155, -394, -908, -798, -734},
	  { -492, -375,  125, -656,  175,  238, -778, -480, -346},
	  {  109, -106, -298,  130,  -94,   -5, -246, -328,  -91},
	  {-1695,-3002,-2773,-1915,-2968,-2702,-2040,-2845,-2391},
	  {  318,-1523,  314,-1087,-3593, -689, -459,-1517,  166},
	  { -563,  170, -498, -823,  -30, -977, -568,   87, -127},
	  {  141, -470, -326,  -94, -686,   84, -435, -406,  117},
	  { -526, -739, -657, -790, -370, -643,  -62, -575, -795},
	  {  644, -538, -117,  215, -946, -502,   36, -186,  287},
	  {  -74,  -45,   50, -826, -716,   54, -359, -561, -842},
	  {  568,   31, -228,  209,  642,  201, -337,  943, -159},
	  {-1164, -666,  309,-1002,  306,  766, -669,  220,  275},
	  { -628,  276, -114,  678, 1379,  228, -474,  113,  284},
	  {-1238,-1546,-1657,-1235,-1565,-1140, -864,-1163, -994},
	  {  219,  106,   54,  315,  771,  664, -495, -466,  291},
	  { -536, -407, -261, -213, -257, -215, -112, -100, -437},
	  { -282,  -81,   39, -840, -993, -571,  579,  265,  124},
	  {  562, 2369,  -38, -474, 1562, 1406, -115, -430, 1564},
	  { -955, -444,   25, -728,  -21,  -43, -456,   -1,  260},
	  { -527,   37, 1221,   63,  603,  655,  383,  142, -339},
	  { -357,-1145, -521, -705,-1387, -250, -605, -592,  429},
	  { -136, -269,  190, -190, -645,  -22,  135, -439, -147},
	  {  153,  334, -545,  995, 1221,   56,   61,  846,  461},
	  { -311,  -59, -569,  569,  161, -480,  565,  625,   45},
	  {  200,  235,  388,  344,    8,  308,   73,  112,  272},
	  { -741, -241,  132,   79, -274,   13,  222,  372,  160},
	  {   12,  360, -164, 1580,  773, -407, 1267, 1050, -515},
	  {  274,  603,    0,  125,  495,   36,  535,  662,    4},
	  { 1103,-1302,  391, -299,-1415, -377,-1422, -379, -893},
	  {  858,  542, 1695,  897,  500,  658,  994,  288,  160},
	  { -286,  -51,  471,   18, -802, -264,  465, -728, -557},
	  { -170, -319, -474, -404,  114, -202, -106, -391, -344},
	  {  -67, -176, -314, -208, -866,  -76, -125, -350,  712},
	  { -270,  124, -188, -155,   19, -252,  297, -128,   27},
	  { -265, -797, -107,  291, -285, -396,  617,  822,  181},
	  { -184, -254,  282,  175, -440,  160,   70, -539, -253},
	  { -327, -322,   22, -156, -662,   59,  -45,  461,  691},
	  { -413, -494, -149,  222, -190,  -75,  -95,  -63, -643},
	  { -131,  610,    5,   53,  932,  428, -288, -154,  283},
	  { -247, -585,  117, -274, -651,  443,  172,  715,  329},
	  {-2058,-2034,-1113,-1824,-2033, -874, -779, -620,  521},
	  {  617, -157,  237,  310,   29, -623, -216,   -4, -775},
	  { -198,  -95,  268,  706, -325, -768,  404, -815, -312}},
	
	 {{  553,  774, -730, -889,  490, -682, -613,  839,  863},
	  {  439,  254, -166, -939,-2280,-2632, -850,-1662,-1302},
	  {  324, -919, -956,  -96,-1449,-1018, -439, -754, -434},
	  {-1249,-1287, 1549,  392, -934, 1577, -298,-1138,  -19},
	  {  494,  963,  904,   95,  532,  510,  335,  585,  834},
	  { -815, -614,    6, -126, -432, -397,  119, -667, -598},
	  {-1818, 1385, 2775, -566, -257,  925, -359,  399, -281},
	  {-1280,-3469,-1263,-2529,-3715,-1003,-1278,-1497, -130},
	  {  215, -104, -791, -541, -942, -993, -407,   74, -709},
	  { -129, -130, -201, -174, -915, -333, -631, -627, -614},
	  { -914, 2326, 1546, -214, -586,   -6, -118,-2062, -916},
	  { 1822,-1739,-1195, 1454, -664,-2206, 1099, 1865,-2002},
	  { -108,  224, -613, -198,  414, -108,   32, -295, -125},
	  {  -21,  186,  339, -852,-1510,-1029, -440, -721, -733},
	  {  253, -597, -880,  -16, -738, -706,  306, -592,  -35},
	  {  535,  871,  472,    6,  207,  147, -603,  521,  201},
	  { -552,-1216,-1138, -844,-1397, -150, -259, -434,  289},
	  {   13, -245, -166, -368, -763, -464,  926,  803,  829},
	  { -395, -524, -803,  138, -772, -267, -258,  771,    9},
	  {  428, -610,  247,  351,  352, -229, 1566,  358,  546},
	  { -446,-1726, -797,  142, -576,  679, 1017,  187, 1641},
	  { -741, -107, -354, -760, -749, -423, -494, -655, -695},
	  {-1174, -624, -482, -782, 1459,  250, -198, 1191,  345},
	  {   -7, -110,   46, -242, -364,  -83,   43, -204,  265},
	  { -239, -511,-1345,  -47, -405, -590, -401, -112, -634},
	  {  104,-1491,-1306,-1573,-3274,-1206, -806, -176,   99},
	  { 1094,  -83, -917,  926,  -67,-1641,   86, -722,-1102},
	  {  273, -315, -161, -528, -742, -378,   28,  -70,   78},
	  { -861, -292, -683,-1038, -673,  -12, -521,   95, -765},
	  { -401, -654,  190, -814, -811, 1449, -996, -708, 1910},
	  {  319, -277,-1081,  519, 1643, 1161,  162,  731,  698},
	  {  675,  324, -785, -647,  979,  228,  -11, -390,  -78},
	  { -999,-1191, -445,-1029,-1212, -140,   54,   -9,   83},
	  { -938,  504, 1203, 1083,  921, -774, -495,-1253, -520},
	  {  -81, -558, -586, -110, -231, -365,  155,  -62,  293},
	  {  119, -764,-1556,  671, 1354,  282,   25,  350, 1087},
	  { -381, -488,  -47, -234, -374, -430,  457,   49, -284},
	  { -309, -684, -437,  444,  569,  121,  136, -549, -971},
	  { 1095, 2686,-1492, -773, 1194, 1570, -785,-1033, 1109},
	  {   77, 1107,  756,  915,   -4,  808, 1208, -214,  525},
	  { -958, -623,  717,  702,  -76, -225,  654,  627, -635},
	  {  591,  229, -722, -932,-1791,-1057,-1076,  -34, 1175},
	  {  562, 1563, 1016,  763,  825,  126,  396,  162, -499},
	  {  -34, 1106,  553,-1587,   75,  802,-1502,-2192,   82},
	  { 1903,  874,  599, 2526,  964,  215, 2857, 1645,  881},
	  { -100, -334,  -37, -208,  102,  524, -480,   95,  -72},
	  {-1623,-1609,  127, -618,-2133,-1065, -294, -825, -863},
	  {   82, -295, -708,  275,  529, -620,  710,  782, -435},
	  {  585, -844, -812,   75, -262, -421, -567,   72,  492},
	  {  384,  388,  883,   32, -443,  -81,-1141, -609,  621},
	  { 1089,-4191,  927, -413, -532, -583, -682, 3660, -945},
	  { -594, -531, 1993, -210, -614, 1601,  -89, -257, 1019},
	  {  352,  431, -692,  303, 1740, -367,  621, 1238, -629},
	  {  -91,-2331, -247,-1003,-2643,  -42, -343,-1434,  535},
	  { -132, -184,   -9, -348,-1106, -355,  100,-1361, -131},
	  { -600,-1176,  -79,  194,-1836,-2575,  824,  -19,-1729},
	  {  163,   58,  683,   88,  111,  457,  887,   97, -342},
	  {  276, -156, -283,  495, -410, -308, -134,  815,  531},
	  { -394, -593,    0, -425, -627, -570,   62,  -73, -855},
	  { -885, -880, -850,  158,   42,-1127,  296, 1018,    8},
	  {  133, -886, -592, -214, -489,  403,   76,  557,  366},
	  {  149, -812,-1721,  171,-1079,-1208, 1712,  262,  280},
	  { -156,  106,-1308,  -91,  163,-1973,  -97, -985,-2749},
	  {  826,  849,  290,  807, -828,-1779, -817,-1794, -933}},
	
	 {{ -541, -737,  609, -119,-1242,   36,  820, -842,-1071},
	  {  302, -759,-1100, -463, -192, 1066,  596,  157,  267},
	  {  141, -475, -414,   -7, -748, -459,  854,   13,  -55},
	  { -466, 1165, 1241,  154, 1787,  483,   50,  412,    5},
	  { -908,-1607, -936,-1195,-1466,-1135,-1000,-1258, -766},
	  {   80, -766,  206, -232,  -36,  423, -475,   76,  717},
	  { 2247,-1537,-2714, 1153,-1539,-1378, -205,  142,  693},
	  {  993, 1730,  730, 2302, 2308, 1345, 1475, 1514, 1055},
	  { -433, -219, -590,   53,  503, -812,  -31,  636,  387},
	  {  166, -165, -124, -833,-1004, -525, -913, -725, -697},
	  { 1435,-1145, -518,-1182, -772, -245,-1898, -613,  167},
	  {-1824,  -45,  127,-1518,  242,  342, -934, -540,  741},
	  {-1925,-1086, -139, -501,-2173,    9,  390,-1343,  -85},
	  { -443, -408,  458, -828,-1173, -540, -196, -621, -330},
	  { -354, 1114, 1191, 1288,  520,-1238,  124, -673, -348},
	  {  364,  203,  423, -290,  197,  296,  -62,  506, -364},
	  { -884, -492,  429, -316, -639, -362, -442, -450,  119},
	  { 1002, 1352,  458,-1367,-1255, -989,  509,  355, -138},
	  { -171,   48, -392,  -50,  -30, -304,   37,  408,  289},
	  { -592,-1035, -534,-1009, -131,   35,   38,  202, 1324},
	  { -393, -223,  320, -191, -899, -277,  317, -122,  390},
	  { -881, -382,-1067,-1060, -229,-1562, -428,  -23, -705},
	  { -409,  532, -505, -103,  709, -201,  664, -132, -443},
	  {    5, -268,   44,   58, -987, -506, -141, -197, -204},
	  {  265,  225,  188, -656, -603,   25, -822, -463,  234},
	  { -145, 1742,  162, 1476, 1687,  424,  983,  918,   21},
	  {-2037,-1389, 1496,-1879,-1245, 1726, -621, -794,  591},
	  {-1336,-1108, -743, -446, -315,  295,-1198, -979, -500},
	  { -229,-1408,   28, -432, -792, -225, -167, -596,   -1},
	  { -115, 1369,-2118,  -97, 1587,-3522,  613, 1058,-2375},
	  { 1051, -487, -320,  777,   46, -460,  948,  779,  183},
	  {   61,-1285,-1282,  539, -964,-1107,  624, -406, -111},
	  {  785,  749,  446, 1121,  104, -299, -349, -791,-1800},
	  {  626,-1986,-1716,-2375,-1509,  829,  595, 1509,  534},
	  { -260,  300,  813, -257,  147,  711,  410,  654, 1034},
	  {  536,  170, -114, -152,  635,  718,  443,  576, -138},
	  { -371, -945, -940, -806, -905,-1002, -450, -183,  358},
	  {  331,  326, -604,  -43,  991,  391,-1090,   98,  -12},
	  {-1131,-1478,  733, -341,-1746,-1417,  103, -331, -713},
	  {  527, -361, -272,  756,  381,  136,  157, 1295,  517},
	  { 1181,  580,-1097, -433,  685, -158, -779, -322,    0},
	  { -247,  784,  553, -157, 1221, 2091, 1570, 2162, 1442},
	  {   67, -840,-1132, -346,-1057, -622,  159, -609, -425},
	  { -652, -778, -457,-1366,-1095,-1342,  -55, -530,-1259},
	  { -939, -736, -108,-1735,-1091, -267,-1588,-1466, -646},
	  { -425,  474,  184,  626,  907,  -44,  171,  -11, -536},
	  {   32, -338,  154,  142,  345,   41, -288,  128,   -8},
	  {  328,  184, -301,-1522,-1581, -401,-1863,-1821,   17},
